<?xml version="1.0"?>
<opencv_storage>
<opencv_ml_svm>
  <format>3</format>
  <svmType>C_SVC</svmType>
  <kernel>
    <type>LINEAR</type></kernel>
  <C>1.</C>
  <term_criteria><epsilon>1.1920928955078125e-07</epsilon>
    <iterations>1000</iterations></term_criteria>
  <var_count>324</var_count>
  <class_count>2</class_count>
  <class_labels type_id="opencv-matrix">
    <rows>2</rows>
    <cols>1</cols>
    <dt>i</dt>
    <data>
      -1 1</data></class_labels>
  <sv_total>1</sv_total>
  <support_vectors>
    <_>
      5.05845547e-01 2.32464045e-01 7.34058917e-01 8.56410623e-01
      1.45130241e+00 8.25220495e-02 3.99604529e-01 5.57264507e-01
      9.22907516e-03 -2.92209148e-01 -1.96917102e-01 1.44251958e-01
      -7.92493343e-01 -4.50865686e-01 -1.59268856e+00 -7.31351674e-02
      -5.11278033e-01 4.08621728e-01 8.81947160e-01 -4.99514997e-01
      -3.85039896e-02 4.51169342e-01 3.46144229e-01 -5.35127744e-02
      1.77422300e-01 7.79303491e-01 1.52334118e+00 -3.17732066e-01
      -3.08128148e-01 4.99043673e-01 -6.13490522e-01 -2.95958847e-01
      -6.32032990e-01 -4.92891639e-01 -5.09389937e-01 2.27444604e-01
      4.83997017e-01 5.78431845e-01 1.38464260e+00 -1.64626896e-01
      1.05313230e+00 -1.18664183e-01 5.46211064e-01 3.07196289e-01
      5.20235777e-01 1.99647054e-01 -9.72071290e-01 -7.97068775e-02
      -2.16421559e-01 -6.50920033e-01 -4.38036382e-01 3.57283428e-02
      -5.19687794e-02 4.46779191e-01 1.77833289e-01 -2.43477538e-01
      3.03330183e-01 2.59073526e-01 4.96518344e-01 5.82661331e-01
      3.61883998e-01 4.52527016e-01 9.69185531e-01 1.85894221e-01
      -2.65807044e-02 2.75682837e-01 -6.25754774e-01 -6.99780822e-01
      -2.27479950e-01 -1.85335591e-01 -2.98199236e-01 -1.85927868e-01
      5.97227395e-01 1.18277848e+00 1.16180861e+00 7.31222928e-01
      8.03104162e-01 4.14949507e-01 8.38100076e-01 9.55089629e-01
      7.15590060e-01 -3.57148647e-01 4.61489588e-01 -2.93107718e-01
      -3.25020611e-01 -2.33708814e-01 1.39342934e-01 3.56830686e-01
      -4.60296601e-01 -8.55561867e-02 4.80758101e-01 5.83085060e-01
      5.53456068e-01 2.64117956e-01 3.44471574e-01 2.99653739e-01
      -1.58389196e-01 -3.08231533e-01 3.79124045e-01 -2.76343465e-01
      -5.80622256e-02 -4.25519645e-01 1.62696496e-01 6.96868300e-01
      1.81414187e-01 1.98270991e-01 4.02934343e-01 5.52890301e-01
      2.47325018e-01 1.37977469e+00 1.31200314e+00 7.31447160e-01
      -2.67613888e-01 1.14495993e+00 9.33416486e-01 7.29593754e-01
      4.02087778e-01 -8.08481276e-01 -7.88729787e-02 -3.43469828e-02
      4.82966080e-02 -9.20816839e-01 2.36826707e-02 -1.90715015e-01
      5.72115362e-01 1.15156122e-01 -7.12819993e-02 3.81394893e-01
      5.45909345e-01 1.15104878e+00 6.75508499e-01 9.64243531e-01
      -2.03363806e-01 -3.98679286e-01 2.21691102e-01 -2.84179956e-01
      -2.68390328e-01 5.05110919e-01 -1.98657691e-01 -1.77324936e-02
      3.65300253e-02 4.13634986e-01 6.70518577e-01 6.84933662e-01
      9.40069377e-01 9.72148716e-01 3.00536960e-01 7.43072152e-01
      -9.79650497e-01 7.52679765e-01 4.54459995e-01 1.20757139e+00
      6.52558804e-01 -8.51946294e-01 -2.50120819e-01 -2.36991599e-01
      -7.24048615e-02 -6.52173281e-01 1.60915822e-01 3.31059247e-02
      3.82235587e-01 1.43864810e+00 -2.72278458e-01 -4.81198400e-01
      5.85083961e-01 1.27421415e+00 -2.29943261e-01 -2.14523003e-01
      -7.92356133e-01 -9.10928130e-01 -7.00650036e-01 4.57053125e-01
      5.15704632e-01 9.09486473e-01 -3.58220011e-01 -1.75341159e-01
      3.17709863e-01 2.85323635e-02 -1.73339620e-02 9.62587416e-01
      -3.82789791e-01 1.12731004e+00 -3.11405152e-01 1.74994588e-01
      -3.31554413e-01 1.16589177e+00 5.59206128e-01 6.88106775e-01
      7.15468168e-01 -8.33161235e-01 -1.11267292e+00 -2.04493720e-02
      6.13402426e-01 4.30337399e-01 4.36889529e-02 5.05803227e-01
      5.68542719e-01 7.63051331e-01 3.24900419e-01 -8.09230432e-02
      4.97205496e-01 7.82854706e-02 -1.21968031e+00 2.72243321e-01
      -7.72829592e-01 -7.76425779e-01 -3.12165231e-01 1.26682150e+00
      8.69343460e-01 4.97001648e-01 2.58455038e-01 8.73227775e-01
      8.42332616e-02 2.20645770e-01 -3.25002372e-01 2.65361905e-01
      6.80200398e-01 7.34786391e-01 4.93961960e-01 4.31945354e-01
      -4.58018035e-02 9.96976554e-01 1.17810512e+00 7.45672643e-01
      9.70059574e-01 -4.43108976e-01 -1.32609451e+00 -3.49431902e-01
      -2.56372303e-01 5.45036554e-01 -3.48437160e-01 -4.44766320e-02
      -2.94332299e-02 4.10704881e-01 4.70490783e-01 7.48820007e-02
      5.25007784e-01 2.47853756e-01 -3.27177703e-01 1.06251776e-01
      -2.73939043e-01 -1.09244537e+00 -5.00100851e-02 9.05225158e-01
      7.20808744e-01 1.53198421e-01 3.20905805e-01 1.82370067e+00
      -4.45900857e-01 5.94207235e-02 3.87832105e-01 1.30444801e+00
      -2.09922455e-02 5.70935249e-01 5.37280023e-01 -4.61005747e-01
      2.00148910e-01 1.21750332e-01 2.04578146e-01 -5.16378105e-01
      2.85368651e-01 2.97177553e-01 -1.73284784e-01 4.81902957e-01
      8.83266255e-02 1.39565086e+00 -2.93141186e-01 5.01532733e-01
      1.00585878e+00 8.55175793e-01 9.81281340e-01 -7.89859518e-02
      5.47137380e-01 6.60247028e-01 -1.83460042e-01 -3.74454111e-01
      2.91821640e-02 -9.23877120e-01 7.16856539e-01 4.91801113e-01
      6.12021804e-01 4.57500696e-01 3.15223075e-02 1.09239519e+00
      8.93766284e-01 4.14093882e-01 3.57515253e-02 7.23136723e-01
      7.31109858e-01 -2.96634763e-01 -1.62744999e-01 5.18127561e-01
      1.76517248e-01 -1.24851964e-01 1.95752412e-01 4.11524028e-01
      -1.03177421e-03 9.41907763e-01 -5.22528827e-01 4.08713639e-01
      1.35695815e+00 1.74042463e+00 -2.02413216e-01 7.80619323e-01
      3.25910807e-01 2.18243384e+00 -8.87958333e-02 1.56739965e-01
      5.24040699e-01 6.28832877e-02 -2.21067205e-01 -2.82157630e-01
      -4.04878914e-01 -6.03003919e-01 -1.79398566e-01 1.32848477e+00
      1.78660065e-01 4.52557296e-01 5.31218827e-01 1.02488220e+00
      6.09740794e-01 -6.35195076e-01 -7.68916607e-01 1.43779683e+00</_></support_vectors>
  <uncompressed_sv_total>635</uncompressed_sv_total>
  <uncompressed_support_vectors>
    <_>
      7.72292838e-02 7.34747723e-02 1.41459957e-01 1.67037651e-01
      1.95533961e-01 9.55801606e-02 1.01364546e-01 1.39972389e-01
      1.46744877e-01 1.58196971e-01 1.81140468e-01 2.44171977e-01
      2.44171977e-01 2.44171977e-01 2.11369336e-01 1.66742727e-01
      1.85836181e-01 1.91990227e-01 6.49860948e-02 8.73063952e-02
      1.56138748e-01 1.85479492e-01 1.54621780e-01 6.44064918e-02
      5.06660789e-02 6.53257146e-02 7.18805268e-02 2.10270673e-01
      1.97547182e-01 2.44171977e-01 2.44171977e-01 2.44171977e-01
      1.68881595e-01 1.18580177e-01 1.39593691e-01 1.55205190e-01
      1.00252710e-01 1.20234914e-01 1.91248640e-01 2.44162396e-01
      2.44162396e-01 1.55667275e-01 1.28404111e-01 1.42433316e-01
      1.39841542e-01 2.44162396e-01 2.44162396e-01 1.55354381e-01
      9.36069265e-02 1.30755693e-01 8.79241824e-02 8.39537829e-02
      1.15307577e-01 2.01883882e-01 1.41883001e-01 1.36268690e-01
      1.83499187e-01 2.44162396e-01 2.44162396e-01 1.20637126e-01
      8.60486999e-02 1.02677971e-01 1.12633877e-01 2.44162396e-01
      2.44162396e-01 1.40683457e-01 1.68959364e-01 2.27289632e-01
      1.03240989e-01 8.89233872e-02 9.88734066e-02 1.19436972e-01
      2.97736347e-01 2.97736347e-01 1.52973056e-01 1.02260977e-01
      1.37834966e-01 9.03492793e-02 8.44923779e-02 1.15902320e-01
      1.86264321e-01 2.97736347e-01 2.97736347e-01 7.82257989e-02
      2.19013672e-02 4.05891314e-02 3.85586172e-02 5.42576648e-02
      7.00314716e-02 2.30597124e-01 2.97736347e-01 2.41673231e-01
      1.37522846e-01 1.77865371e-01 2.32246324e-01 9.85137224e-02
      8.60355198e-02 9.86660719e-02 1.16405606e-01 2.97736347e-01
      2.33018711e-01 5.55567555e-02 1.99800376e-02 7.77209699e-02
      4.58994024e-02 3.58342975e-02 3.72080430e-02 7.88415298e-02
      3.75637621e-01 3.75637621e-01 8.79099444e-02 2.38497797e-02
      4.44186553e-02 4.23014387e-02 5.94077446e-02 7.80041888e-02
      2.48471111e-01 3.75637621e-01 3.75637621e-01 1.00488551e-01
      3.56207937e-02 5.09302430e-02 3.65945771e-02 4.42885831e-02
      4.52069901e-02 1.77386805e-01 3.55601698e-01 2.59224385e-01
      6.61340207e-02 2.22701952e-02 8.46448988e-02 5.33937216e-02
      4.26274538e-02 4.35149223e-02 8.74212235e-02 2.02797666e-01
      1.63177699e-01 2.49416716e-02 2.01521367e-02 5.52484244e-02
      2.18273140e-02 1.85787901e-02 2.40284968e-02 6.72950074e-02
      4.23728675e-01 4.23728675e-01 1.09899916e-01 3.90176810e-02
      5.60266934e-02 4.00778726e-02 5.11649400e-02 5.35578057e-02
      2.08754674e-01 4.23728675e-01 4.23728675e-01 1.80995882e-01
      5.13309687e-02 6.61770180e-02 4.20160964e-02 3.45568918e-02
      3.08995321e-02 1.12392724e-01 2.44799897e-01 1.99084982e-01
      2.81157140e-02 2.29605306e-02 6.49417117e-02 2.38294546e-02
      1.96572915e-02 2.54715364e-02 7.55419508e-02 1.10276259e-01
      9.07298997e-02 3.72645482e-02 2.40342785e-02 5.99549524e-02
      5.90335205e-02 5.54905273e-02 5.71717918e-02 7.52304792e-02
      4.21227127e-01 4.21227127e-01 2.26592109e-01 6.39825538e-02
      8.24434608e-02 5.34389578e-02 4.33643982e-02 3.99722457e-02
      1.49810985e-01 4.19309616e-01 4.21227127e-01 1.98452562e-01
      7.08974674e-02 1.00159861e-01 4.20251191e-02 4.41334769e-02
      4.22287807e-02 8.66469294e-02 1.50968745e-01 1.21959522e-01
      4.52153906e-02 2.96919998e-02 7.19944313e-02 6.81830049e-02
      6.37558624e-02 6.89443350e-02 9.67932492e-02 7.80984908e-02
      7.65791386e-02 6.19261004e-02 4.67026904e-02 1.09393448e-01
      9.91661698e-02 8.65923911e-02 8.38692039e-02 7.93235525e-02
      3.41600001e-01 3.41600001e-01 2.71323949e-01 8.79298821e-02
      1.20938778e-01 5.48960827e-02 5.45018688e-02 5.26929274e-02
      1.16438687e-01 3.11387837e-01 3.41600001e-01 1.82229951e-01
      1.68627009e-01 2.04213157e-01 8.09094906e-02 7.72809684e-02
      8.94505158e-02 1.81782737e-01 1.03596777e-01 9.78114754e-02
      7.90912583e-02 5.64422533e-02 1.32331043e-01 1.27313957e-01
      1.14933707e-01 1.10378154e-01 1.05995707e-01 1.53686047e-01
      1.48132876e-01 1.03165835e-01 8.42628255e-02 2.03043878e-01
      1.25107288e-01 1.03421599e-01 1.27036929e-01 1.65047377e-01
      2.29816750e-01 2.29816750e-01 1.96707472e-01 1.71878159e-01
      2.09543288e-01 8.26829076e-02 8.23240504e-02 9.23436582e-02
      1.80636927e-01 2.29816750e-01 2.29816750e-01 2.23986149e-01
      2.15182275e-01 2.03235641e-01 1.06046461e-01 9.55070481e-02
      1.52840957e-01 2.29816750e-01 1.58238307e-01 1.55370533e-01
      1.11483797e-01 8.98544118e-02 2.12694794e-01 1.33469835e-01
      1.12319261e-01 1.29050359e-01 1.64249599e-01 1.94130838e-01
      1.42946348e-01 1.21663943e-01 8.45597312e-02 2.29816750e-01
      7.39307776e-02 8.44341367e-02 1.22543611e-01 1.88998714e-01
      2.15173438e-01 2.16239408e-01 1.61123529e-01 1.58577278e-01
      1.51460484e-01 7.59174675e-02 6.73823953e-02 9.89110246e-02
      1.80852413e-01 2.29271293e-01 1.96363285e-01 2.06991315e-01
      1.77091151e-01 2.01303154e-01 1.71454653e-01 1.38541788e-01
      2.32952401e-01 2.28104621e-01 1.39925659e-01 1.05808690e-01
      7.50802830e-02 5.43517284e-02 1.57306060e-01 5.40573634e-02
      6.02153279e-02 9.33532417e-02 1.43679544e-01 1.43205598e-01
      1.89698651e-01 2.32952401e-01 2.32952401e-01 2.32952401e-01
      2.17938855e-01 1.63284779e-01 1.06215544e-01 1.10792115e-01</_>
    <_>
      2.17163980e-01 2.37323165e-01 2.37323165e-01 1.61571845e-01
      1.16299212e-01 6.74318746e-02 5.47086187e-02 7.82561377e-02
      1.48025855e-01 2.28954434e-01 2.26394624e-01 2.08371580e-01
      1.10761255e-01 9.51176509e-02 5.89755960e-02 7.67193660e-02
      1.02631241e-01 2.02250630e-01 2.37323165e-01 2.37323165e-01
      2.37323165e-01 2.06486821e-01 1.74607217e-01 8.77299830e-02
      5.74435964e-02 1.08293913e-01 1.59627631e-01 2.35848233e-01
      2.37323165e-01 2.23622918e-01 1.13106377e-01 1.36863083e-01
      7.97058195e-02 5.12430072e-02 1.05584480e-01 1.71766445e-01
      2.18682006e-01 2.18682006e-01 2.18682006e-01 1.29459232e-01
      1.03162751e-01 6.46164939e-02 8.09378177e-02 1.12406850e-01
      2.18294024e-01 2.18682006e-01 1.89461276e-01 2.15661243e-01
      1.19780220e-01 1.52388513e-01 9.41805020e-02 1.01434097e-01
      1.25796422e-01 2.18682006e-01 2.18682006e-01 2.18682006e-01
      2.18682006e-01 1.32049024e-01 1.54400185e-01 9.24794525e-02
      5.61394244e-02 1.20682813e-01 1.88422531e-01 1.82996377e-01
      2.10878253e-01 2.18682006e-01 1.89276338e-01 2.06739560e-01
      6.21929504e-02 7.88901597e-02 9.73790213e-02 1.86808035e-01
      1.99402034e-01 1.51009291e-01 1.65593430e-01 9.04151574e-02
      1.18562281e-01 7.45434687e-02 8.37075189e-02 1.04217403e-01
      1.95850059e-01 2.01412514e-01 2.37663314e-01 2.37663314e-01
      2.37663314e-01 2.03082278e-01 1.32476002e-01 9.96084660e-02
      9.91725475e-02 1.50911346e-01 1.50592908e-01 1.68383241e-01
      1.72261715e-01 1.43082812e-01 1.61653489e-01 4.86940369e-02
      6.20173067e-02 7.84462094e-02 1.54969573e-01 2.06876457e-01
      2.37663314e-01 2.37663314e-01 2.37663314e-01 2.37663314e-01
      1.64515108e-01 1.38079256e-01 1.15458466e-01 1.42796502e-01
      1.24621354e-01 1.41640037e-01 2.05082595e-01 1.49351478e-01
      1.24732204e-01 8.16463456e-02 5.94626926e-02 6.13368191e-02
      9.38270465e-02 1.34635985e-01 2.44173512e-01 2.44173512e-01
      2.44173512e-01 1.52919263e-01 1.25469074e-01 1.38624251e-01
      1.16361544e-01 1.14311643e-01 1.23666383e-01 1.81313112e-01
      2.13315830e-01 2.40590692e-01 2.39586502e-01 9.49369892e-02
      8.07046965e-02 6.87249899e-02 8.66028666e-02 1.54180035e-01
      2.44173512e-01 2.44173512e-01 2.44173512e-01 2.44173512e-01
      1.86844915e-01 1.37844130e-01 1.00207262e-01 1.20095454e-01
      7.66059011e-02 1.44788131e-01 2.05234095e-01 1.50905982e-01
      8.72137547e-02 6.73251972e-02 7.38203079e-02 6.23314641e-02
      6.43381402e-02 9.01718065e-02 1.85994208e-01 2.19746351e-01
      2.05500141e-01 2.40201384e-01 2.40201384e-01 1.54339388e-01
      1.40160531e-01 8.51649493e-02 8.70688781e-02 1.49381772e-01
      2.34057918e-01 2.40201384e-01 2.38426700e-01 1.06267914e-01
      7.61986077e-02 5.41018173e-02 6.65588453e-02 1.41158417e-01
      2.02974766e-01 2.40201384e-01 2.40201384e-01 2.40201384e-01
      2.40201384e-01 1.78642198e-01 1.23711877e-01 1.34524748e-01
      5.68734556e-02 1.17602773e-01 1.40391961e-01 1.21297270e-01
      1.85189962e-01 1.62353963e-01 9.41115990e-02 8.69023651e-02
      5.42659126e-02 8.11237469e-02 1.48488969e-01 1.43733770e-01
      2.52155542e-01 2.62407720e-01 2.62407720e-01 1.19920760e-01
      1.00601107e-01 6.15531392e-02 8.66117403e-02 1.30032524e-01
      2.03989029e-01 1.65840060e-01 2.62407720e-01 2.14210153e-01
      1.04617685e-01 7.25092664e-02 8.25373307e-02 9.07628536e-02
      8.91476572e-02 1.64522991e-01 2.55449891e-01 2.62407720e-01
      2.62407720e-01 2.62407720e-01 1.71672061e-01 1.05681017e-01
      6.87263086e-02 1.25702649e-01 1.26609355e-01 2.17417523e-01
      2.51044750e-01 2.51044750e-01 1.09687850e-01 9.42885354e-02
      5.40641807e-02 1.20190300e-01 1.62578791e-01 1.29271850e-01
      1.75734997e-01 1.95046127e-01 1.34922370e-01 7.32208937e-02
      6.39708638e-02 7.49160349e-02 8.25181529e-02 7.99116418e-02
      1.48285493e-01 2.20058590e-01 2.51044750e-01 2.51044750e-01
      2.51044750e-01 1.47549748e-01 9.50566307e-02 1.07967481e-01
      1.18460037e-01 1.13438785e-01 1.85654178e-01 2.51044750e-01
      2.51044750e-01 2.51044750e-01 1.68624669e-01 9.98666286e-02
      1.51708052e-01 2.09842727e-01 1.72296226e-01 2.35053301e-01
      2.35053301e-01 1.93064705e-01 1.01039745e-01 8.67339671e-02
      9.50680524e-02 2.00872526e-01 2.19757408e-01 1.35569379e-01
      9.80083868e-02 7.14702681e-02 6.06115088e-02 6.29510731e-02
      7.96598569e-02 1.07962556e-01 1.30576551e-01 1.42768890e-01
      1.48428217e-01 2.35053301e-01 2.35053301e-01 2.35053301e-01
      2.35053301e-01 2.26260394e-01 1.25962123e-01 2.23563865e-01
      2.27439016e-01 1.55707970e-01 1.06365390e-01 9.50222313e-02
      1.21341586e-01 1.78327158e-01 1.31317154e-01 1.46313295e-01
      2.25653917e-01 2.25653917e-01 1.71946883e-01 1.33832246e-01
      1.00961760e-01 8.42648819e-02 8.17530602e-02 9.94966552e-02
      1.38132855e-01 2.25653917e-01 2.25653917e-01 2.09078386e-01
      1.37973189e-01 7.47237504e-02 4.85122129e-02 6.96074888e-02
      1.02100320e-01 1.43231794e-01 2.25653917e-01 2.25653917e-01
      1.93471313e-01 1.46034315e-01 1.34356603e-01 1.72215924e-01
      2.25653917e-01 1.71004087e-01 1.86041236e-01 2.25653917e-01
      2.25653917e-01 2.25653917e-01 1.49619937e-01 1.11958884e-01
      9.57776234e-02 1.40849322e-01 1.57638177e-01 1.50124490e-01</_>
    <_>
      2.33599931e-01 2.32397959e-01 1.35164604e-01 8.54073390e-02
      1.34237677e-01 6.37539551e-02 1.08432934e-01 1.66185036e-01
      2.33599931e-01 2.33599931e-01 2.33599931e-01 2.19400153e-01
      1.23037457e-01 1.32848918e-01 6.38628826e-02 1.50694117e-01
      2.33599931e-01 2.33599931e-01 2.04507440e-01 1.94194183e-01
      1.81184784e-01 9.41229165e-02 1.31066352e-01 7.62663335e-02
      8.98691788e-02 9.40206125e-02 1.58950180e-01 2.33599931e-01
      1.92549974e-01 2.03060389e-01 1.11393608e-01 1.33307442e-01
      4.89143133e-02 1.03551470e-01 1.28470957e-01 2.05992848e-01
      2.44700670e-01 2.36394018e-01 1.72737911e-01 9.44239795e-02
      1.07051380e-01 5.27438670e-02 1.23944536e-01 2.01765239e-01
      2.44700670e-01 2.44700670e-01 2.44700670e-01 2.37357855e-01
      1.33281231e-01 1.41103506e-01 9.42511782e-02 1.14637136e-01
      1.67929634e-01 2.44700670e-01 2.11379647e-01 1.67633101e-01
      1.77028105e-01 9.37535390e-02 1.08406439e-01 4.34668027e-02
      8.17965046e-02 1.00701533e-01 1.63654149e-01 2.44700670e-01
      1.56069770e-01 1.17706954e-01 9.83931050e-02 1.47550225e-01
      6.79873005e-02 1.03939123e-01 1.18155397e-01 2.44700670e-01
      2.38143131e-01 2.38143131e-01 1.85115129e-01 1.03769742e-01
      1.07360415e-01 7.02034608e-02 8.72992203e-02 1.29804492e-01
      2.30063170e-01 2.38143131e-01 2.38143131e-01 2.38143131e-01
      1.35525808e-01 1.46316037e-01 8.04651454e-02 1.00660384e-01
      1.16169110e-01 2.19093725e-01 2.01940849e-01 1.19246364e-01
      9.30344239e-02 7.63126388e-02 1.12311460e-01 4.54787910e-02
      7.41129369e-02 8.77894908e-02 1.91386595e-01 2.38143131e-01
      2.38143131e-01 1.87901631e-01 1.47336274e-01 1.41268566e-01
      1.53812572e-01 1.66187316e-01 1.57844618e-01 2.38143131e-01
      2.22763419e-01 2.22763419e-01 1.85991481e-01 9.71556902e-02
      1.06191911e-01 5.78518137e-02 7.28021115e-02 8.48684162e-02
      1.67892784e-01 2.22763419e-01 2.14962006e-01 2.22763419e-01
      1.73600182e-01 2.04078645e-01 1.29951745e-01 1.29926309e-01
      1.35087535e-01 1.72323897e-01 2.19062507e-01 1.80471301e-01
      1.30662784e-01 1.01585664e-01 1.04534708e-01 1.06882259e-01
      1.15999408e-01 1.11655571e-01 1.87836409e-01 2.22763419e-01
      2.22763419e-01 2.22763419e-01 2.12912872e-01 1.62077144e-01
      1.38612792e-01 1.36080757e-01 1.36667997e-01 1.78432882e-01
      1.71568975e-01 1.54954880e-01 1.73074961e-01 1.12940796e-01
      1.31724790e-01 7.68104196e-02 8.25462788e-02 8.89269337e-02
      1.18615642e-01 1.49478778e-01 1.07206024e-01 1.63640290e-01
      2.36542985e-01 2.36542985e-01 2.36542985e-01 2.36542985e-01
      1.39316604e-01 1.63102344e-01 1.73391327e-01 2.16562703e-01
      2.00242743e-01 1.34248987e-01 9.93305519e-02 9.25774053e-02
      9.52148512e-02 9.84614789e-02 1.23766631e-01 1.46717459e-01
      1.77576467e-01 2.36542985e-01 2.36542985e-01 2.36542985e-01
      2.36542985e-01 1.48765996e-01 9.53426510e-02 1.52668148e-01
      1.04061604e-01 7.27997795e-02 1.04508884e-01 1.71629578e-01
      2.20898762e-01 2.09364399e-01 1.53480634e-01 9.22562629e-02
      1.09987214e-01 8.45144466e-02 1.64169237e-01 2.43239880e-01
      2.43239880e-01 2.43239880e-01 2.43239880e-01 1.41084135e-01
      5.93757071e-02 8.13553408e-02 1.00938231e-01 1.24468401e-01
      1.84806466e-01 2.39803508e-01 2.39905238e-01 1.43719137e-01
      9.13967192e-02 6.46858066e-02 1.02889955e-01 1.10166460e-01
      7.79094771e-02 1.84433565e-01 2.43239880e-01 2.43239880e-01
      2.43239880e-01 1.97040617e-01 7.92574659e-02 9.98084024e-02
      7.77797997e-02 1.36616677e-01 2.24738896e-01 2.37240240e-01
      2.37240240e-01 2.37240240e-01 1.42614678e-01 5.91970868e-02
      7.84303844e-02 1.21298060e-01 2.11176127e-01 2.37240240e-01
      2.37240240e-01 1.55241922e-01 8.99558291e-02 4.91065346e-02
      5.95771745e-02 9.60947126e-02 9.75923166e-02 7.12916702e-02
      1.72795117e-01 2.37240240e-01 2.37240240e-01 2.37240240e-01
      1.77990839e-01 7.19257146e-02 9.15329158e-02 1.47601619e-01
      1.04582921e-01 1.44344658e-01 2.28122994e-01 2.07521930e-01
      2.06224576e-01 1.65032491e-01 1.14927195e-01 1.18825100e-01
      1.46670610e-01 2.29025528e-01 2.29025528e-01 2.29025528e-01
      2.11049184e-01 1.26478225e-01 6.64821789e-02 6.75857887e-02
      1.14348769e-01 1.78170562e-01 1.55708432e-01 1.18604459e-01
      1.05742335e-01 9.59392190e-02 7.93512985e-02 7.03747049e-02
      1.83263540e-01 2.07920909e-01 1.77812815e-01 1.28760874e-01
      1.88719496e-01 2.29025528e-01 2.29025528e-01 2.29025528e-01
      2.14599162e-01 1.37005568e-01 1.40844822e-01 2.16096073e-01
      1.29417926e-01 1.46472946e-01 1.11331299e-01 1.23925082e-01
      1.00700468e-01 1.45609632e-01 2.09825799e-01 2.09469214e-01
      2.00318500e-01 1.90047085e-01 1.47535309e-01 1.36148050e-01
      1.15569241e-01 9.51286629e-02 8.15860778e-02 2.01055154e-01
      2.19404176e-01 2.19404176e-01 2.03125641e-01 1.55322686e-01
      9.30023342e-02 1.04406051e-01 8.41824189e-02 9.52581167e-02
      1.99882641e-01 2.19404176e-01 2.19404176e-01 1.51708022e-01
      1.71158716e-01 1.40729249e-01 1.53240934e-01 1.26999736e-01
      1.69574380e-01 2.19404176e-01 2.19404176e-01 2.19404176e-01
      1.66612029e-01 1.47160098e-01 8.64555016e-02 1.03148282e-01
      9.32393745e-02 1.44134372e-01 2.19404176e-01 2.19404176e-01</_>
    <_>
      2.08459705e-01 1.87523246e-01 1.33369416e-01 6.38032258e-02
      9.61178243e-02 5.09777367e-02 1.09342247e-01 1.15891948e-01
      1.81677550e-01 2.42705703e-01 2.42705703e-01 1.53012499e-01
      8.31639618e-02 8.94101486e-02 4.02379259e-02 8.50263238e-02
      1.25072196e-01 2.18704686e-01 1.93157241e-01 2.42705703e-01
      2.42705703e-01 1.69861898e-01 1.50595039e-01 7.43712932e-02
      9.66170281e-02 7.68888965e-02 1.43750072e-01 2.42705703e-01
      2.42705703e-01 2.42705703e-01 2.42705703e-01 1.75837964e-01
      9.98426303e-02 1.06437221e-01 1.10587694e-01 2.24143639e-01
      1.93760976e-01 1.93056747e-01 1.08346306e-01 5.62073737e-02
      6.63647279e-02 2.89014149e-02 6.16089441e-02 8.85481462e-02
      1.52368844e-01 2.47756168e-01 2.47756168e-01 1.40066028e-01
      9.49366689e-02 1.03628054e-01 6.91873282e-02 9.90702733e-02
      1.61131173e-01 2.47756168e-01 2.19661459e-01 2.47756168e-01
      2.47756168e-01 1.72536060e-01 1.30611256e-01 7.11347237e-02
      7.59778023e-02 7.66620561e-02 1.53817967e-01 2.47756168e-01
      2.47756168e-01 2.47756168e-01 2.11260676e-01 1.19430564e-01
      9.23943818e-02 1.11800849e-01 1.41266286e-01 2.47756168e-01
      2.47564673e-01 2.13398829e-01 1.06988974e-01 7.24972636e-02
      7.61471465e-02 5.00086881e-02 7.36088604e-02 1.22316383e-01
      2.19023570e-01 2.47564673e-01 2.47564673e-01 1.11235164e-01
      5.38716651e-02 1.03950195e-01 6.48173019e-02 8.50291774e-02
      1.64946571e-01 2.47564673e-01 2.47564673e-01 2.47564673e-01
      2.02279970e-01 1.65363476e-01 9.36688557e-02 7.08530545e-02
      8.57578740e-02 1.08104326e-01 2.47564673e-01 2.47564673e-01
      2.47564673e-01 1.71995506e-01 9.49766561e-02 8.77301544e-02
      7.33740777e-02 8.90102163e-02 1.42577901e-01 2.47564673e-01
      2.49631643e-01 2.35334963e-01 9.94239450e-02 4.94263172e-02
      9.21665207e-02 5.90530038e-02 7.42444843e-02 1.34827375e-01
      2.49631643e-01 2.49631643e-01 2.49631643e-01 1.03426419e-01
      6.68555424e-02 8.79761130e-02 5.85021190e-02 8.14274251e-02
      2.12550625e-01 2.49631643e-01 2.49631643e-01 2.49631643e-01
      1.53628230e-01 8.81585851e-02 7.67395273e-02 6.54368922e-02
      7.79922977e-02 1.19512066e-01 2.49631643e-01 2.49631643e-01
      2.49631643e-01 1.32335305e-01 9.48449969e-02 8.13257769e-02
      4.79682647e-02 7.44226873e-02 1.66243926e-01 2.49631643e-01
      2.27885440e-01 2.22585827e-01 7.98686743e-02 4.58405279e-02
      5.71531877e-02 3.77416871e-02 5.93839139e-02 1.57948419e-01
      2.27885440e-01 2.27885440e-01 1.74638599e-01 1.12995014e-01
      1.38358414e-01 2.27885440e-01 2.27885440e-01 2.27885440e-01
      2.27885440e-01 2.27885440e-01 2.27885440e-01 2.27885440e-01
      1.00255489e-01 6.40958101e-02 5.61731793e-02 3.46240550e-02
      5.64962551e-02 1.29734442e-01 2.05907464e-01 2.27885440e-01
      1.83967426e-01 1.18581094e-01 1.69176564e-01 1.70977280e-01
      9.26856995e-02 1.03476621e-01 1.88211739e-01 1.77363381e-01
      2.04446718e-01 1.42847955e-01 8.62172022e-02 9.90956649e-02
      1.67654842e-01 1.87153801e-01 1.69142440e-01 2.32382208e-01
      1.94839999e-01 1.38629928e-01 9.38659832e-02 1.66531920e-01
      2.19233021e-01 2.19008595e-01 2.32382208e-01 2.32382208e-01
      2.32382208e-01 2.19212636e-01 2.07627207e-01 1.47567868e-01
      9.15635228e-02 1.22833438e-01 1.19553290e-01 6.44587725e-02
      7.64906630e-02 1.45256802e-01 1.40061408e-01 1.34169877e-01
      1.11597829e-01 1.71415165e-01 2.32382208e-01 2.32382208e-01
      1.53620839e-01 8.35245401e-02 8.55397657e-02 1.16432615e-01
      6.93177804e-02 4.36666086e-02 7.01979622e-02 1.03398293e-01
      1.19211644e-01 1.46146342e-01 1.49177685e-01 1.65520847e-01
      1.11933298e-01 1.40055835e-01 3.19561362e-01 3.19561362e-01
      2.64454812e-01 9.03331637e-02 5.51279746e-02 5.91373593e-02
      5.61745986e-02 7.23756477e-02 6.82457238e-02 5.37829436e-02
      7.02178404e-02 1.57190025e-01 2.19780937e-01 7.57808238e-02
      4.32552435e-02 4.58448939e-02 5.92463687e-02 9.22763571e-02
      3.19561362e-01 3.19561362e-01 3.19561362e-01 3.19561362e-01
      1.97921321e-01 4.86370027e-02 2.71420591e-02 4.31076884e-02
      5.92629649e-02 2.18635827e-01 1.94958493e-01 1.24088801e-01
      4.55988720e-02 3.12957689e-02 3.29319984e-02 3.07964273e-02
      3.73983756e-02 2.67289490e-01 3.05891037e-01 2.83690959e-01
      7.36258402e-02 1.97228957e-02 6.36024866e-03 7.93421641e-03
      7.30828522e-03 2.91452929e-02 4.14099060e-02 1.77347928e-01
      2.67812192e-01 3.05891037e-01 3.05891037e-01 9.32870209e-02
      2.39017252e-02 1.30884275e-02 2.22048406e-02 1.39334336e-01
      3.05891037e-01 3.05891037e-01 2.67138630e-01 2.20795780e-01
      6.19872585e-02 1.88829582e-02 1.35981264e-02 2.01383121e-02
      1.89879358e-01 3.46393317e-01 2.28195220e-01 6.42202199e-02
      1.71555560e-02 5.82960201e-03 6.30162330e-03 5.68448426e-03
      2.20814198e-02 2.65195519e-01 3.46393317e-01 3.28361511e-01
      2.42903903e-02 9.77612939e-03 3.18359025e-03 6.73021004e-03
      4.59928205e-03 2.55399253e-02 9.93544310e-02 3.46393317e-01
      3.18471521e-01 2.29849592e-01 1.92758545e-01 5.31757697e-02
      1.52736856e-02 1.05873933e-02 1.54632144e-02 1.38054043e-01
      3.46393317e-01 1.31706208e-01 3.91537808e-02 2.11954881e-02
      1.03480108e-02 1.14136012e-02 9.07774828e-03 2.19130497e-02</_>
    <_>
      2.43546605e-01 2.43546605e-01 1.51669353e-01 1.30324259e-01
      1.13586217e-01 6.35106489e-02 8.31152052e-02 6.95127323e-02
      1.97954029e-01 2.43546605e-01 2.43546605e-01 9.57738385e-02
      8.30239430e-02 7.10278824e-02 4.06953320e-02 8.72064084e-02
      1.13796160e-01 2.43546605e-01 2.40143538e-01 2.43546605e-01
      1.57803893e-01 1.56948969e-01 1.58171415e-01 1.28883392e-01
      1.37640908e-01 8.47830996e-02 1.59662545e-01 2.43546605e-01
      2.43546605e-01 1.14124693e-01 1.23632737e-01 1.63865149e-01
      1.28148496e-01 1.63993731e-01 1.44709811e-01 2.28033289e-01
      2.47482851e-01 2.47482851e-01 9.70890820e-02 8.29084218e-02
      7.10373074e-02 3.97866927e-02 8.57296884e-02 1.07447065e-01
      2.47482851e-01 2.47482851e-01 2.47482851e-01 9.89073217e-02
      4.72779907e-02 6.44445047e-02 7.90992305e-02 1.03839114e-01
      1.27601832e-01 2.47482851e-01 2.47482851e-01 2.47482851e-01
      1.16183892e-01 1.21425241e-01 1.57880247e-01 1.23879090e-01
      1.61379784e-01 1.34964004e-01 2.13749826e-01 2.47482851e-01
      2.47482851e-01 6.65610582e-02 8.20514560e-02 1.23555407e-01
      1.17750920e-01 1.10832751e-01 1.46439001e-01 2.47482851e-01
      2.33015254e-01 2.22441077e-01 8.29092711e-02 4.02902924e-02
      5.16291074e-02 6.03012741e-02 7.58107975e-02 1.04360200e-01
      2.33015254e-01 2.33015254e-01 1.81046173e-01 1.02069743e-01
      6.22798130e-02 1.75430626e-01 2.33015254e-01 2.33015254e-01
      2.33015254e-01 2.33015254e-01 2.33015254e-01 2.33015254e-01
      5.90194426e-02 7.14971051e-02 1.08123086e-01 1.00530840e-01
      9.65012833e-02 1.25130326e-01 2.33015254e-01 2.33015254e-01
      2.12754831e-01 8.28766078e-02 7.89426640e-02 1.37910083e-01
      1.05607353e-01 1.23260394e-01 1.68098941e-01 2.33015254e-01
      1.76779166e-01 1.32707998e-01 6.95284232e-02 3.73585261e-02
      1.07274570e-01 1.77330494e-01 2.38195091e-01 1.71609506e-01
      1.98464230e-01 1.69700652e-01 1.19746611e-01 1.56711340e-01
      1.92288369e-01 2.39902139e-01 2.39902139e-01 2.39902139e-01
      2.09454715e-01 1.78230062e-01 2.00404480e-01 1.58019930e-01
      5.53546734e-02 4.87307906e-02 7.78446719e-02 6.74452633e-02
      8.23820308e-02 1.14235476e-01 2.09190160e-01 1.17347106e-01
      1.03188641e-01 1.31894156e-01 2.32493967e-01 2.39902139e-01
      2.39902139e-01 1.38060376e-01 1.47017896e-01 1.56808317e-01
      1.40895382e-01 9.97491628e-02 1.25657007e-01 1.47665203e-01
      2.44857907e-01 2.16785416e-01 2.29210109e-01 1.88842803e-01
      1.55391619e-01 2.26220444e-01 9.79228839e-02 1.03367426e-01
      1.64399669e-01 2.44857907e-01 1.21741325e-01 7.03839809e-02
      1.13960981e-01 2.08368227e-01 1.04672797e-01 8.99542645e-02
      1.04862645e-01 1.78233430e-01 2.44857907e-01 2.44857907e-01
      1.15457229e-01 1.28342837e-01 1.40476942e-01 1.27708301e-01
      7.80214816e-02 1.16339251e-01 2.13688284e-01 2.44857907e-01
      2.44857907e-01 9.91543531e-02 9.29357335e-02 1.58166751e-01
      2.60281771e-01 1.17146976e-01 1.33964673e-01 2.16717139e-01
      2.60281771e-01 1.60140276e-01 9.38132703e-02 1.43064246e-01
      2.40084514e-01 2.60281771e-01 1.55073896e-01 6.60986900e-02
      5.64083233e-02 7.89505243e-02 3.99491265e-02 3.98677252e-02
      6.29818887e-02 2.24300757e-01 1.40347406e-01 9.11942273e-02
      1.43303111e-01 2.60281771e-01 2.60281771e-01 2.60281771e-01
      1.24090418e-01 1.12788506e-01 1.81132525e-01 2.60281771e-01
      1.33947670e-01 9.99884978e-02 7.92557597e-02 1.36493161e-01
      1.07039280e-01 7.33218938e-02 9.73160788e-02 2.19212040e-01
      2.56857783e-01 2.07773820e-01 9.73659679e-02 9.03778225e-02
      1.27169073e-01 6.32168725e-02 5.78922629e-02 9.16306078e-02
      2.56857783e-01 2.56857783e-01 2.56857783e-01 1.56095982e-01
      6.16235845e-02 7.33774975e-02 2.79657915e-02 3.60365734e-02
      4.81742211e-02 1.68883339e-01 2.56857783e-01 1.76906794e-01
      1.41912207e-01 1.23167761e-01 2.24490374e-01 1.77935258e-01
      1.05968602e-01 1.33795738e-01 2.56857783e-01 2.56857783e-01
      2.56857783e-01 2.12941974e-01 1.02651872e-01 1.06812514e-01
      7.22746402e-02 8.07076097e-02 1.08422443e-01 2.04559088e-01
      2.64108956e-01 2.64108956e-01 1.45203128e-01 6.06587231e-02
      7.26422593e-02 2.72291340e-02 3.68733592e-02 4.80871648e-02
      1.73856556e-01 2.64108956e-01 2.64108956e-01 2.08264843e-01
      9.03300717e-02 5.97707182e-02 3.71003412e-02 3.53049822e-02
      6.43683746e-02 1.57841086e-01 2.64108956e-01 2.64108956e-01
      2.03669950e-01 9.96598601e-02 1.03487715e-01 7.07767159e-02
      8.18417892e-02 1.09890766e-01 2.09420979e-01 2.64108956e-01
      2.64108956e-01 2.64108956e-01 1.66262209e-01 1.05726607e-01
      6.82243258e-02 7.82944262e-02 8.52964818e-02 1.77390829e-01
      2.50210613e-01 2.50210613e-01 1.82662666e-01 7.45081380e-02
      5.28867319e-02 3.14225741e-02 3.01229507e-02 5.38174734e-02
      1.28096446e-01 2.50210613e-01 2.43383840e-01 1.22632712e-01
      9.23310220e-02 4.50629927e-02 3.95404026e-02 6.95712492e-02
      1.28838018e-01 2.50210613e-01 2.50210613e-01 2.50210613e-01
      2.50210613e-01 1.37886316e-01 9.22062695e-02 6.12013042e-02
      6.59210384e-02 7.51366466e-02 1.51100338e-01 2.50210613e-01
      2.50210613e-01 2.50210613e-01 1.78539857e-01 9.21309963e-02
      5.72401695e-02 1.27240866e-01 1.19078636e-01 2.50210613e-01</_>
    <_>
      1.72457039e-01 1.76504254e-01 2.14223921e-01 2.02571139e-01
      1.93020329e-01 9.24223587e-02 7.19864443e-02 1.00507073e-01
      1.52001962e-01 2.27425605e-01 2.27425605e-01 2.27425605e-01
      1.99628696e-01 1.49291366e-01 9.69542712e-02 6.00333884e-02
      1.19863197e-01 1.91489071e-01 1.57196358e-01 2.27425605e-01
      2.27425605e-01 1.93590149e-01 1.69844702e-01 8.80903602e-02
      9.58216339e-02 9.59236249e-02 1.31245151e-01 2.27425605e-01
      2.27425605e-01 2.27425605e-01 1.52635291e-01 1.52633786e-01
      7.29949102e-02 5.79744503e-02 9.83902216e-02 1.62454993e-01
      2.22045377e-01 2.22045377e-01 2.22045377e-01 1.91759363e-01
      1.42217651e-01 9.44506899e-02 5.49478121e-02 1.11879855e-01
      1.78274408e-01 2.22045377e-01 2.22045377e-01 2.22045377e-01
      1.68851793e-01 1.63417459e-01 9.07020718e-02 8.19524080e-02
      1.19478628e-01 2.22045377e-01 2.22045377e-01 2.22045377e-01
      2.22045377e-01 1.46866366e-01 1.42055452e-01 7.34322965e-02
      5.99914677e-02 9.62866768e-02 1.52981609e-01 2.22045377e-01
      2.15534687e-01 2.02297002e-01 1.36354297e-01 1.79184139e-01
      5.45568094e-02 3.72255817e-02 7.06672594e-02 1.64055303e-01
      2.30742246e-01 2.30742246e-01 1.99369773e-01 1.46790400e-01
      1.38681725e-01 8.19912404e-02 7.13267922e-02 1.06652722e-01
      2.10160732e-01 2.30742246e-01 2.30742246e-01 2.30742246e-01
      2.30742246e-01 2.30742246e-01 1.37327269e-01 8.74439925e-02
      9.11769196e-02 1.55827671e-01 2.16178626e-01 2.03458801e-01
      1.84882164e-01 1.19249582e-01 1.53502226e-01 4.76658717e-02
      3.04685514e-02 6.28532395e-02 1.46703511e-01 1.28843501e-01
      1.43394932e-01 2.20861390e-01 1.97766379e-01 2.30742246e-01
      1.29753202e-01 1.12588927e-01 8.84438753e-02 1.16712451e-01
      1.78119063e-01 2.05644533e-01 2.17473254e-01 1.99606702e-01
      1.61524341e-01 8.01457688e-02 5.16499542e-02 5.58106527e-02
      9.96776745e-02 1.70741722e-01 2.32543096e-01 2.32543096e-01
      2.32543096e-01 2.32543096e-01 2.32543096e-01 1.59976244e-01
      1.29697561e-01 1.41978592e-01 8.71709511e-02 8.96410197e-02
      1.34767771e-01 1.22135699e-01 1.73875615e-01 7.07492083e-02
      5.79837933e-02 5.03300764e-02 7.45454580e-02 8.62489045e-02
      1.67091399e-01 2.32543096e-01 2.12712198e-01 2.32543096e-01
      2.32543096e-01 2.32543096e-01 1.39543757e-01 1.19991146e-01
      9.59052965e-02 1.55636355e-01 1.82691470e-01 1.65036380e-01
      1.81136146e-01 1.28585428e-01 7.96329007e-02 6.59550503e-02
      7.56041557e-02 2.24901199e-01 2.28574499e-01 2.28574499e-01
      2.28574499e-01 2.28574499e-01 2.28574499e-01 1.59286499e-01
      1.33494675e-01 1.64181098e-01 4.67056930e-02 9.24050659e-02
      1.45207927e-01 1.18186899e-01 2.28574499e-01 1.24009721e-01
      1.31285027e-01 7.26584643e-02 6.38283715e-02 1.83620438e-01
      1.91525549e-01 2.28574499e-01 1.93099901e-01 2.28574499e-01
      1.78628415e-01 1.88987181e-01 1.17807552e-01 1.49333641e-01
      1.32993191e-01 1.49398983e-01 2.20138520e-01 1.43048972e-01
      2.27459475e-01 1.59583047e-01 1.00302227e-01 8.35328326e-02
      1.00123353e-01 2.42009878e-01 2.42009878e-01 2.42009878e-01
      2.42009878e-01 2.42009878e-01 1.31117627e-01 9.33800936e-02
      7.14913532e-02 1.36305153e-01 1.06647536e-01 1.19480215e-01
      1.66008174e-01 1.21323660e-01 2.42009878e-01 1.14471599e-01
      1.23393320e-01 7.35401064e-02 9.10725817e-02 2.33628929e-01
      2.17176273e-01 2.23365486e-01 1.76534474e-01 1.65264547e-01
      1.20128639e-01 9.83637869e-02 1.24678783e-01 1.53755724e-01
      2.42826462e-01 2.42826462e-01 2.42826462e-01 2.42826462e-01
      2.42826462e-01 1.14711553e-01 8.16816241e-02 6.49389029e-02
      1.17851757e-01 1.72351256e-01 2.42826462e-01 2.42826462e-01
      2.42826462e-01 1.86746821e-01 6.48101196e-02 5.37930205e-02
      3.50354351e-02 9.24108103e-02 1.95989668e-01 1.81306854e-01
      1.87835485e-01 1.45130917e-01 1.47126466e-01 1.00522764e-01
      8.55107531e-02 1.03529327e-01 1.30128443e-01 1.46000817e-01
      2.03325734e-01 2.29500696e-01 1.89414352e-01 1.24392748e-01
      9.36346129e-02 8.51985067e-02 1.30678713e-01 1.11137316e-01
      2.35853687e-01 2.57964343e-01 2.57964343e-01 2.57964343e-01
      2.47049287e-01 8.76322612e-02 7.01915398e-02 4.43819426e-02
      1.24054514e-01 6.31597787e-02 1.13278903e-01 2.57964343e-01
      2.57964343e-01 1.48996562e-01 3.68679278e-02 3.48689891e-02
      4.02130485e-02 5.27326055e-02 1.96231425e-01 2.57964343e-01
      2.57964343e-01 2.40745410e-01 1.57332093e-01 1.24597877e-01
      1.08450010e-01 1.68282434e-01 1.48395613e-01 9.27088484e-02
      1.41880944e-01 1.96568623e-01 1.96706161e-01 1.09164953e-01
      5.55592105e-02 7.23576993e-02 8.78313035e-02 7.82725289e-02
      1.18542403e-01 2.21228167e-01 2.60315359e-01 2.60315359e-01
      2.60315359e-01 6.92881495e-02 6.33572638e-02 6.80995286e-02
      9.69968513e-02 8.62084851e-02 1.18209459e-01 2.60315359e-01
      2.47339651e-01 1.23236753e-01 4.28064205e-02 4.70977053e-02
      4.82982546e-02 6.83641732e-02 1.62810087e-01 2.57204533e-01
      2.60315359e-01 2.60315359e-01 1.98268175e-01 1.05901808e-01
      1.32004783e-01 1.59874424e-01 1.39040440e-01 1.52964845e-01
      1.84192672e-01 2.36919597e-01 1.98754653e-01 8.88914987e-02
      5.02265655e-02 7.80441537e-02 7.94667155e-02 1.21813565e-01</_>
    <_>
      2.41607338e-01 1.92137972e-01 1.31092474e-01 6.43429309e-02
      1.10729210e-01 4.77637984e-02 5.62922768e-02 8.26146379e-02
      2.01831028e-01 2.41607338e-01 2.41607338e-01 1.65710866e-01
      8.78165811e-02 9.25410688e-02 6.25507608e-02 7.00696781e-02
      1.47508055e-01 2.41607338e-01 2.41607338e-01 2.41319805e-01
      1.72000021e-01 8.58851299e-02 1.25342309e-01 8.07377622e-02
      1.13213368e-01 1.08132541e-01 2.15179995e-01 2.41607338e-01
      2.41607338e-01 1.63024113e-01 1.16588049e-01 2.08594143e-01
      1.08488865e-01 1.24182031e-01 1.83445051e-01 2.41607338e-01
      1.18243515e-01 9.10352170e-02 4.57426384e-02 2.34442335e-02
      2.63441764e-02 1.69943720e-02 1.91003773e-02 4.08189595e-02
      7.34210834e-02 2.17414662e-01 2.02987373e-01 2.91414469e-01
      2.91414469e-01 2.91414469e-01 1.33801669e-01 1.15549468e-01
      1.40329480e-01 1.29090980e-01 1.25709578e-01 8.27118531e-02
      4.35696878e-02 3.00862975e-02 5.69834374e-02 2.84770280e-02
      3.40254083e-02 4.79155406e-02 8.79172757e-02 1.95758730e-01
      2.14442477e-01 2.91414469e-01 2.91414469e-01 2.91414469e-01
      2.91414469e-01 2.17776433e-01 1.44803241e-01 1.40858799e-01
      7.73580521e-02 7.40272403e-02 1.27493635e-01 2.27493793e-01
      1.14208482e-01 4.67267409e-02 3.97334211e-02 4.90862168e-02
      4.43339869e-02 2.10209429e-01 1.55977756e-01 2.70037472e-01
      2.70037472e-01 2.70037472e-01 1.00607529e-01 9.55512375e-02
      1.99487448e-01 2.70037472e-01 7.34263659e-02 7.60669261e-02
      1.04589336e-01 2.06409976e-01 2.27155611e-01 1.37023821e-01
      7.71178752e-02 5.27744778e-02 5.31403273e-02 8.05064216e-02
      1.08059675e-01 2.45549709e-01 2.70037472e-01 2.70037472e-01
      2.70037472e-01 1.38442516e-01 7.02204779e-02 9.71572772e-02
      1.51553333e-01 1.21466644e-01 2.63599008e-01 2.63599008e-01
      2.26907805e-01 8.10979381e-02 7.56969303e-02 1.49261966e-01
      1.93078682e-01 2.63599008e-01 1.38245061e-01 1.62824944e-01
      1.83547243e-01 9.40309092e-02 4.74275276e-02 5.01492769e-02
      1.65467411e-01 2.63599008e-01 6.49462715e-02 8.90479460e-02
      1.93923473e-01 2.63599008e-01 2.63599008e-01 2.63599008e-01
      1.13877870e-01 5.65633513e-02 7.33358860e-02 1.43576041e-01
      5.90683259e-02 1.03206336e-01 1.70214057e-01 1.56933978e-01
      1.26819491e-01 6.50631860e-02 1.08715557e-01 1.94447652e-01
      3.02867264e-01 1.43188536e-01 1.99770734e-01 2.33083844e-01
      1.18332230e-01 5.69189973e-02 6.10249415e-02 1.98742107e-01
      3.02867264e-01 3.02867264e-01 3.02867264e-01 7.84801915e-02
      2.06494518e-02 2.00246368e-02 2.21505258e-02 2.24264693e-02
      5.43188229e-02 3.02867264e-01 1.44811153e-01 6.66075423e-02
      1.26016155e-01 2.15019688e-01 2.00057715e-01 1.59349501e-01
      7.65421987e-02 1.13883354e-01 2.02973530e-01 2.35702947e-01
      1.15884900e-01 5.33919632e-02 2.73523070e-02 3.97209525e-02
      2.45589931e-02 6.23171963e-02 1.44515231e-01 1.99250892e-01
      3.55669707e-01 3.55669707e-01 7.00554326e-02 2.14778222e-02
      2.17175763e-02 2.52432544e-02 2.36940235e-02 6.51297718e-02
      3.55669707e-01 3.55669707e-01 3.55669707e-01 2.79585838e-01
      3.71226296e-02 2.42508892e-02 1.10212257e-02 3.35651152e-02
      6.78998977e-02 1.57704458e-01 2.45970950e-01 1.12760536e-01
      5.45362867e-02 2.91154124e-02 4.21113148e-02 2.79867034e-02
      6.53387979e-02 1.57290459e-01 2.21028298e-01 1.65155768e-01
      1.64344534e-01 6.59585893e-02 3.54973450e-02 4.33192067e-02
      1.62883680e-02 4.69986908e-02 9.66618732e-02 1.03674777e-01
      3.68672907e-01 3.68672907e-01 3.14827442e-01 4.42443416e-02
      2.79387403e-02 1.39776887e-02 3.88176925e-02 7.85074532e-02
      2.07294956e-01 2.40707591e-01 3.68672907e-01 3.61469239e-01
      5.33904433e-02 4.65138331e-02 2.35766117e-02 4.88139205e-02
      1.14362128e-01 1.60978049e-01 2.11398944e-01 2.00900897e-01
      8.19230825e-02 4.30222042e-02 5.37408814e-02 2.02786513e-02
      5.86783513e-02 1.20541036e-01 1.32902220e-01 1.47377118e-01
      1.20003670e-01 5.10932393e-02 3.74232121e-02 3.11852228e-02
      1.30807795e-02 3.93098854e-02 9.24186185e-02 1.28102586e-01
      3.28289837e-01 3.28289837e-01 3.28289837e-01 7.85673335e-02
      6.70554638e-02 3.19888331e-02 7.27976859e-02 1.71413064e-01
      2.39341334e-01 3.28289837e-01 2.19717115e-01 1.50183961e-01
      6.10218532e-02 6.65295273e-02 4.64599505e-02 6.11279532e-02
      1.45295620e-01 2.30605572e-01 2.21767724e-01 1.91562444e-01
      8.13607723e-02 5.90367131e-02 5.08832894e-02 1.96957085e-02
      6.02660105e-02 1.41295135e-01 1.89103991e-01 2.45636553e-01
      1.47246853e-01 5.33481985e-02 3.48446406e-02 2.93989573e-02
      2.42512114e-02 6.22939654e-02 1.20742165e-01 1.96194619e-01
      2.51349211e-01 2.51349211e-01 2.34697282e-01 8.80268440e-02
      9.31634903e-02 6.43832684e-02 8.58149976e-02 1.98106095e-01
      2.51349211e-01 2.51349211e-01 1.99936450e-01 4.95873727e-02
      4.79405895e-02 8.87438431e-02 6.57361001e-02 8.31368417e-02
      1.84841827e-01 2.51349211e-01 2.51349211e-01 1.94897220e-01
      7.26225227e-02 4.79382351e-02 3.78466994e-02 3.14511582e-02
      8.38446245e-02 1.63453594e-01 2.51349211e-01 2.51349211e-01
      2.51349211e-01 7.86464587e-02 7.42895007e-02 9.06680003e-02
      5.69140539e-02 1.05945654e-01 1.71278805e-01 2.51349211e-01</_>
    <_>
      2.16893740e-02 2.86855772e-02 3.07394546e-02 1.59978822e-01
      2.80734986e-01 4.63362522e-02 1.90947577e-02 1.49169108e-02
      1.69974193e-02 6.07660525e-02 5.80954999e-02 1.07266970e-01
      2.36382902e-01 2.80734986e-01 1.08770244e-01 1.18949473e-01
      1.30143866e-01 9.32736769e-02 4.47318815e-02 1.42392650e-01
      2.80734986e-01 2.37931237e-01 2.80734986e-01 3.42171937e-02
      2.30891891e-02 1.35811251e-02 2.27598604e-02 2.80734986e-01
      2.80734986e-01 2.80734986e-01 2.80734986e-01 2.80734986e-01
      6.11312687e-02 3.47553827e-02 4.68990989e-02 2.06213906e-01
      3.75280194e-02 3.50669511e-02 6.18181117e-02 1.73657343e-01
      2.49184996e-01 7.65033439e-02 7.64461383e-02 8.17755982e-02
      5.78167960e-02 1.22884683e-01 1.66042939e-01 2.49184996e-01
      2.19301119e-01 2.49184996e-01 1.19512975e-01 1.20219454e-01
      1.11830808e-01 1.13084011e-01 1.99411958e-01 2.49184996e-01
      2.49184996e-01 2.35371739e-01 2.27767944e-01 4.33684886e-02
      2.54807658e-02 3.05388346e-02 1.25698283e-01 2.49184996e-01
      2.49184996e-01 2.49184996e-01 1.19016476e-01 2.05885664e-01
      8.08402225e-02 5.15146516e-02 5.90373315e-02 2.49184996e-01
      1.10989057e-01 1.51655540e-01 2.39885285e-01 2.05644459e-01
      2.39885285e-01 1.17012374e-01 1.23728648e-01 1.19516954e-01
      1.13242574e-01 2.39885285e-01 2.39885285e-01 2.39885285e-01
      2.14574054e-01 2.39885285e-01 1.16008528e-01 5.71920052e-02
      3.91386524e-02 9.70219523e-02 2.39885285e-01 2.39885285e-01
      2.39885285e-01 1.19104333e-01 1.93383202e-01 7.46029541e-02
      4.72259969e-02 5.75555526e-02 2.39885285e-01 1.42648339e-01
      1.14724293e-01 1.22791000e-01 1.11630276e-01 2.28032306e-01
      1.11527026e-01 8.26757178e-02 6.22523427e-02 1.25826448e-01
      2.79644102e-01 2.79644102e-01 2.79644102e-01 2.79644102e-01
      2.79644102e-01 1.64840147e-01 8.25116411e-02 5.95768020e-02
      1.32181630e-01 2.79644102e-01 2.79644102e-01 1.15008473e-01
      7.07584247e-02 9.84295085e-02 4.90159355e-02 3.36088538e-02
      2.23542843e-02 8.25161636e-02 2.17812255e-01 1.66336671e-01
      1.82202101e-01 1.56954706e-01 2.79644102e-01 1.51990429e-01
      1.07166290e-01 8.22410658e-02 1.88593313e-01 5.41231856e-02
      5.19921407e-02 4.39491533e-02 6.85317293e-02 1.33404255e-01
      9.41632167e-02 1.42686009e-01 7.32414424e-02 5.76825887e-02
      3.46696049e-01 3.46696049e-01 2.38800406e-01 1.61595672e-01
      2.20090255e-01 1.05926342e-01 6.65309802e-02 4.21701483e-02
      1.61106691e-01 3.46696049e-01 3.46696049e-01 9.45880860e-02
      4.46754508e-02 9.69213694e-02 2.00858079e-02 3.06167919e-02
      2.48596650e-02 6.58574477e-02 1.10024720e-01 1.02706626e-01
      9.17798132e-02 1.42877415e-01 2.70411134e-01 1.81507766e-01
      2.57393807e-01 1.36031419e-01 1.12614423e-01 4.00563478e-02
      4.82441299e-02 4.21580076e-02 3.33770588e-02 1.15591250e-01
      8.16989541e-02 1.60749838e-01 6.14546910e-02 5.17522544e-02
      3.75171930e-01 3.75171930e-01 2.04987824e-01 9.65326205e-02
      1.98859796e-01 4.49623913e-02 7.08397254e-02 5.35676591e-02
      1.47461236e-01 2.34498546e-01 3.25906724e-01 1.15100332e-01
      1.02655917e-01 2.16749758e-01 5.78275807e-02 4.40423712e-02
      7.49965012e-02 9.33326781e-02 9.16789249e-02 1.07440792e-01
      9.17066485e-02 7.84379244e-02 2.53103077e-01 1.90776259e-01
      3.75171930e-01 1.44544750e-01 1.20220482e-01 3.68553735e-02
      3.97494845e-02 4.63749804e-02 4.57992367e-02 1.26039863e-01
      5.58424518e-02 3.91419530e-02 2.22179014e-02 3.64760384e-02
      2.47766405e-01 2.47766405e-01 1.50208786e-01 1.32743508e-01
      2.47766405e-01 6.77021071e-02 5.44221215e-02 9.06759277e-02
      1.17177464e-01 1.78502917e-01 2.04847157e-01 2.20005855e-01
      1.76881954e-01 2.47766405e-01 1.99646890e-01 1.00364916e-01
      1.21564843e-01 1.67327568e-01 4.81621660e-02 5.12651056e-02
      5.94247356e-02 4.89610061e-02 1.62587732e-01 7.21649975e-02
      6.43289834e-02 2.99328417e-02 4.92606536e-02 1.13469280e-01
      2.20582291e-01 2.47766405e-01 2.47766405e-01 2.47766405e-01
      2.47766405e-01 2.22549811e-01 1.20129228e-01 1.22646198e-01
      1.11143060e-01 1.20225638e-01 1.21948987e-01 9.99052227e-02
      1.93646476e-01 1.06061369e-01 5.36095873e-02 7.35539645e-02
      9.54207852e-02 7.13300109e-02 1.27015591e-01 1.75062135e-01
      1.87554553e-01 2.44092613e-01 2.44092613e-01 1.79299966e-01
      6.97342679e-02 9.39050838e-02 6.27445579e-02 1.18413545e-01
      1.58713534e-01 1.87643453e-01 1.93487763e-01 1.60297364e-01
      1.12950139e-01 6.02537990e-02 6.49443790e-02 1.12977527e-01
      2.26074129e-01 2.44092613e-01 2.44092613e-01 2.44092613e-01
      2.44092613e-01 2.44092613e-01 2.30248034e-01 2.25468993e-01
      5.67446053e-02 9.89678279e-02 1.33801430e-01 1.38175428e-01
      2.25917622e-01 1.76756024e-01 1.23163983e-01 5.30030169e-02
      7.37310797e-02 5.52549958e-02 8.92065316e-02 1.28365472e-01
      1.53591618e-01 2.25917622e-01 2.05836535e-01 2.07068697e-01
      5.87005317e-02 4.72312160e-02 8.77577662e-02 1.77460939e-01
      2.25917622e-01 2.25917622e-01 2.25917622e-01 2.25917622e-01
      2.25917622e-01 1.63552418e-01 1.63267851e-01 1.14485830e-01
      1.03051893e-01 1.58111900e-01 1.92406505e-01 2.25917622e-01
      2.25917622e-01 2.25917622e-01 1.76433608e-01 1.76664323e-01</_>
    <_>
      1.36700079e-01 1.81949586e-01 2.09792539e-01 2.28050470e-01
      2.81806439e-01 1.85588270e-01 1.47269502e-01 9.93194655e-02
      1.54301971e-01 1.90110460e-01 2.01438650e-01 1.03902392e-01
      6.36035055e-02 9.88924131e-02 4.77801450e-02 9.22058299e-02
      8.23496357e-02 1.39853388e-01 1.52899787e-01 1.91533834e-01
      2.81806439e-01 2.81806439e-01 2.81806439e-01 2.81806439e-01
      1.50523126e-01 4.88726385e-02 1.09821528e-01 1.27990142e-01
      1.48174480e-01 1.42088950e-01 1.27932683e-01 1.86532035e-01
      7.33020082e-02 5.57732061e-02 4.09109332e-02 8.37368071e-02
      2.32424811e-01 2.32424811e-01 1.85734078e-01 1.23862408e-01
      1.77401215e-01 8.32075700e-02 1.56475246e-01 1.42310336e-01
      2.32424811e-01 2.32424811e-01 1.81791753e-01 1.09441444e-01
      8.54861736e-02 1.82845816e-01 9.19091329e-02 1.76551774e-01
      1.77128747e-01 2.32424811e-01 2.26367071e-01 2.32424811e-01
      2.32424811e-01 2.32424811e-01 2.32424811e-01 1.46253079e-01
      9.74028707e-02 6.72957078e-02 1.41121015e-01 1.49711162e-01
      8.79503712e-02 9.28284302e-02 6.96344078e-02 2.07993433e-01
      5.45431487e-02 7.66782537e-02 7.52752796e-02 1.17458008e-01
      1.86572999e-01 1.11627109e-01 6.34493157e-02 4.48825248e-02
      9.52924341e-02 4.89078239e-02 9.65077952e-02 9.61332992e-02
      1.55673221e-01 1.98521554e-01 1.05292782e-01 1.95077419e-01
      3.13292116e-01 3.13292116e-01 3.13292116e-01 1.78935423e-01
      1.79680228e-01 2.13480607e-01 8.63546431e-02 5.59533797e-02
      5.16990572e-02 3.91428173e-02 1.09544776e-01 2.92854346e-02
      4.40784134e-02 4.26416583e-02 6.65371194e-02 1.17946506e-01
      1.05872691e-01 1.81047037e-01 2.78681159e-01 3.13292116e-01
      3.13292116e-01 1.37972474e-01 5.46602644e-02 8.17502290e-02
      7.32436553e-02 3.76231782e-02 7.20339715e-02 1.64598435e-01
      2.61091888e-01 1.19979605e-01 6.90503195e-02 7.05271810e-02
      7.80329853e-02 2.63574332e-01 2.63574332e-01 1.44429490e-01
      2.63574332e-01 2.63574332e-01 2.04115018e-01 7.71891177e-02
      7.16779679e-02 2.58829594e-01 4.36163805e-02 3.69547196e-02
      6.38139322e-02 1.00390211e-01 2.63574332e-01 1.58612996e-01
      4.98737805e-02 2.05569062e-02 2.98648719e-02 2.28342205e-01
      1.94507420e-01 1.29027009e-01 1.97346210e-01 2.63574332e-01
      2.63574332e-01 1.31538033e-01 5.96221648e-02 1.42109960e-01
      2.66054630e-01 1.74798250e-01 1.02699131e-01 2.31994167e-01
      2.66054630e-01 1.54539004e-01 5.73527329e-02 5.18515557e-02
      1.66449308e-01 2.66054630e-01 2.66054630e-01 1.61800876e-01
      1.30628064e-01 1.09364189e-01 5.25334738e-02 2.83228271e-02
      4.14023623e-02 2.66054630e-01 1.49234101e-01 1.28229842e-01
      9.00523663e-02 1.44310743e-01 2.66054630e-01 2.66054630e-01
      9.17965099e-02 3.89304794e-02 9.10723135e-02 2.57382959e-01
      2.06960231e-01 8.56481567e-02 7.65853673e-02 1.72956660e-01
      1.38897702e-01 8.36585909e-02 5.95719293e-02 1.44771427e-01
      2.90531039e-01 2.90531039e-01 1.70363143e-01 1.53460309e-01
      1.41674414e-01 6.82631060e-02 3.39506418e-02 4.57628816e-02
      2.90531039e-01 2.90531039e-01 2.90531039e-01 2.90531039e-01
      1.45512342e-01 6.76485449e-02 2.41207052e-02 2.26479713e-02
      5.87931871e-02 1.97067499e-01 2.90531039e-01 2.41309032e-01
      1.01538248e-01 9.70483944e-02 2.20167547e-01 1.73365206e-01
      9.95433107e-02 6.81824461e-02 1.68928176e-01 1.41387105e-01
      1.21091813e-01 5.78714795e-02 3.58239189e-02 7.05103576e-02
      5.21946251e-02 4.38796356e-02 4.17243205e-02 7.94931129e-02
      3.29817653e-01 3.29817653e-01 3.29817653e-01 2.01399744e-01
      9.64535624e-02 3.41449976e-02 3.26756425e-02 8.35525244e-02
      3.04930836e-01 3.29817653e-01 3.29817653e-01 2.63866305e-01
      1.30645260e-01 6.26728460e-02 2.16099191e-02 1.71651430e-02
      6.56323954e-02 1.71392471e-01 2.23803967e-01 1.92168772e-01
      8.62198770e-02 5.18715419e-02 1.05637513e-01 7.97692016e-02
      6.78225234e-02 6.41306192e-02 1.27148166e-01 1.21148653e-01
      8.07550028e-02 3.65214050e-02 3.09384800e-02 5.37323132e-02
      4.28363904e-02 3.78687382e-02 4.85215522e-02 6.42970875e-02
      3.72367829e-01 3.72367829e-01 3.70337635e-01 1.96811453e-01
      8.83689076e-02 3.22923549e-02 2.51841340e-02 9.47223008e-02
      2.36886531e-01 3.72367829e-01 3.72367829e-01 2.37025857e-01
      3.95244174e-02 6.86008707e-02 1.90152135e-02 1.68691389e-02
      2.88502704e-02 1.67188302e-01 1.66203514e-01 1.13570780e-01
      5.34387864e-02 4.61763069e-02 7.82989636e-02 6.07652105e-02
      5.23531847e-02 6.42789528e-02 8.76034424e-02 9.11137760e-02
      4.71360199e-02 1.63291767e-02 1.55009516e-02 5.18002547e-02
      2.85916012e-02 3.88950221e-02 7.20924288e-02 9.04936343e-02
      3.55606318e-01 3.55606318e-01 2.58498818e-01 4.85952534e-02
      6.65964708e-02 1.70312542e-02 1.49922483e-02 3.28001939e-02
      1.89945787e-01 3.55606318e-01 3.55606318e-01 3.05382252e-01
      1.47579923e-01 3.29176396e-01 1.20581396e-01 9.83411744e-02
      6.09734990e-02 1.06779523e-01 1.10039167e-01 5.57507575e-02
      1.88532472e-02 1.78981908e-02 5.58227524e-02 3.17116305e-02
      4.22416776e-02 7.90193453e-02 1.00852773e-01 6.16140105e-02
      4.17407677e-02 6.25422001e-02 9.53557044e-02 1.80892706e-01
      9.38009769e-02 8.83995891e-02 7.13681653e-02 7.36486316e-02</_>
    <_>
      2.33852625e-01 2.11538911e-01 8.95283595e-02 5.60223758e-02
      9.24464613e-02 8.30284506e-02 1.17603280e-01 1.42192051e-01
      2.33852625e-01 2.33852625e-01 2.33852625e-01 1.63774490e-01
      1.29058689e-01 1.77743733e-01 1.14054285e-01 1.18621662e-01
      1.75021574e-01 2.33852625e-01 2.33852625e-01 2.33852625e-01
      1.64320365e-01 1.13446921e-01 1.06883891e-01 7.57553130e-02
      1.04207411e-01 1.40477210e-01 2.24607840e-01 2.33852625e-01
      2.33852625e-01 1.71736836e-01 1.36098266e-01 1.32566839e-01
      7.53253177e-02 6.24345727e-02 1.18828572e-01 1.99865207e-01
      1.85157701e-01 1.41161263e-01 7.96620399e-02 6.11240529e-02
      8.48971605e-02 5.85113391e-02 6.25713840e-02 9.05003771e-02
      1.65114224e-01 2.58555263e-01 2.58555263e-01 2.58555263e-01
      2.06850246e-01 2.58555263e-01 1.57239422e-01 8.14387426e-02
      1.47110447e-01 2.58555263e-01 1.51252538e-01 1.40997097e-01
      8.95153955e-02 7.03927949e-02 6.69082031e-02 3.93671878e-02
      3.20494846e-02 6.16150014e-02 1.06127039e-01 2.58555263e-01
      2.58555263e-01 2.58555263e-01 2.58555263e-01 2.58555263e-01
      9.48541984e-02 4.15437371e-02 7.49937743e-02 1.56989172e-01
      1.32072330e-01 1.34530619e-01 1.06308937e-01 8.17182511e-02
      1.38966084e-01 6.03025928e-02 3.29498015e-02 5.98791093e-02
      1.06955357e-01 2.46913195e-01 2.46913195e-01 2.46913195e-01
      1.79305613e-01 2.33334348e-01 1.35699376e-01 1.63213611e-01
      1.51933104e-01 2.45352536e-01 1.09803990e-01 1.07281663e-01
      1.35391265e-01 1.63796976e-01 2.26547942e-01 3.79495546e-02
      1.77552011e-02 3.17602307e-02 6.19014800e-02 2.46913195e-01
      2.46913195e-01 2.46913195e-01 2.46913195e-01 2.46913195e-01
      6.80600703e-02 1.06695853e-01 1.26297504e-01 2.08997652e-01
      2.19531849e-01 1.85874864e-01 1.75826684e-01 1.17553383e-01
      1.59923241e-01 8.76437202e-02 9.53710526e-02 9.09306109e-02
      1.55687988e-01 1.75968423e-01 2.19531849e-01 2.19531849e-01
      1.26945689e-01 8.98078680e-02 9.61736664e-02 2.19531849e-01
      2.14658171e-01 1.44511878e-01 2.19531849e-01 2.19531849e-01
      2.19531849e-01 2.19531849e-01 2.19531849e-01 4.50697206e-02
      5.97838350e-02 7.02374503e-02 1.27710924e-01 1.91099748e-01
      1.59179613e-01 1.68020219e-01 1.08693890e-01 6.42142072e-02
      7.91972727e-02 2.19531849e-01 2.19531849e-01 2.07419142e-01
      1.96517482e-01 2.33231589e-01 2.33231589e-01 1.38428390e-01
      1.05287187e-01 1.05645873e-01 2.31606692e-01 2.16015711e-01
      1.58465639e-01 1.18933253e-01 2.33231589e-01 1.74915850e-01
      9.89790484e-02 6.08849600e-02 7.43229240e-02 1.57029539e-01
      1.98282406e-01 9.59874168e-02 2.21969858e-01 1.86185479e-01
      1.91379592e-01 1.27734169e-01 8.35099891e-02 7.99287558e-02
      2.33181596e-01 2.33231589e-01 2.18092069e-01 7.91376978e-02
      4.05151434e-02 5.51708937e-02 4.70125340e-02 4.68948595e-02
      1.39362618e-01 2.33231589e-01 2.33231589e-01 2.04767585e-01
      1.66718900e-01 2.64744759e-01 2.52613336e-01 1.41901836e-01
      8.50773603e-02 1.06313132e-01 2.35334635e-01 2.64744759e-01
      1.38876483e-01 1.52427763e-01 1.77199528e-01 1.41067699e-01
      1.16678566e-01 1.08722225e-01 7.95948356e-02 8.77568945e-02
      1.36526287e-01 9.45785418e-02 1.12802178e-01 5.80834337e-02
      8.10464621e-02 6.61492795e-02 6.21164739e-02 1.87707677e-01
      2.64744759e-01 2.64744759e-01 2.64744759e-01 1.30168334e-01
      9.22530219e-02 5.59559911e-02 5.58546074e-02 8.01955089e-02
      1.56171218e-01 2.64744759e-01 2.64744759e-01 1.77540869e-01
      2.02463284e-01 2.38184199e-01 1.86227039e-01 1.50272503e-01
      1.37942135e-01 1.05447777e-01 1.22567616e-01 1.92220047e-01
      1.26827523e-01 2.08063647e-01 1.57269850e-01 1.49028599e-01
      1.30516440e-01 1.54588595e-01 7.82074928e-02 7.91678876e-02
      1.03872716e-01 1.22831732e-01 1.65485114e-01 1.14500023e-01
      7.18539059e-02 7.43934363e-02 1.01773128e-01 2.08912849e-01
      2.38184199e-01 2.38184199e-01 2.38184199e-01 2.38184199e-01
      2.22477153e-01 1.36436313e-01 1.05715603e-01 1.09188884e-01
      1.31556809e-01 2.19492257e-01 2.37209246e-01 1.72973365e-01
      2.20640048e-01 1.67257041e-01 1.60370529e-01 1.47350907e-01
      1.71477690e-01 8.77311304e-02 8.81004333e-02 1.21696152e-01
      1.32791042e-01 1.89625666e-01 2.20640048e-01 2.01252356e-01
      1.19580925e-01 1.18588828e-01 7.36253634e-02 1.01175636e-01
      9.05710459e-02 1.86711743e-01 2.20640048e-01 2.20640048e-01
      1.38460845e-01 1.09442271e-01 1.19835585e-01 1.50392219e-01
      2.20640048e-01 2.20640048e-01 1.86176226e-01 2.20640048e-01
      2.20640048e-01 2.20640048e-01 1.85725659e-01 1.31131008e-01
      1.07059725e-01 1.18466832e-01 1.21419504e-01 2.20640048e-01
      2.03180432e-01 2.17685446e-01 1.95801809e-01 1.18738823e-01
      1.23703733e-01 7.37693384e-02 1.00494266e-01 9.24326479e-02
      1.88565850e-01 1.61733285e-01 1.84435278e-01 2.06347987e-01
      1.06711902e-01 9.63523090e-02 8.18632990e-02 1.14936605e-01
      1.32768944e-01 1.76684469e-01 2.17685446e-01 2.17685446e-01
      2.17685446e-01 1.85331613e-01 1.33278310e-01 1.10495470e-01
      1.23956412e-01 1.26708373e-01 2.17685446e-01 2.17685446e-01
      1.35497823e-01 2.17685446e-01 2.17685446e-01 2.01149449e-01
      1.25063881e-01 1.36382967e-01 1.47287250e-01 2.17685446e-01</_>
    <_>
      2.55369186e-01 2.55369186e-01 1.40644312e-01 6.57534674e-02
      2.74287835e-02 3.19520198e-02 4.87083159e-02 9.01238173e-02
      1.92310452e-01 2.42497593e-01 2.55369186e-01 2.55369186e-01
      2.03259349e-01 6.26048967e-02 5.00802882e-02 3.50554064e-02
      5.41974083e-02 9.36086923e-02 2.55369186e-01 2.55369186e-01
      1.21043198e-01 7.74953142e-02 3.99781689e-02 4.57857437e-02
      9.67150405e-02 2.12795675e-01 2.55369186e-01 2.12839976e-01
      2.55369186e-01 2.55369186e-01 1.96679771e-01 8.01725537e-02
      8.80894661e-02 7.40290210e-02 1.34282500e-01 1.30479828e-01
      2.41838470e-01 2.56885141e-01 2.56885141e-01 1.82885468e-01
      5.68309613e-02 4.62674536e-02 3.32829170e-02 5.33089526e-02
      9.23560113e-02 1.36526689e-01 2.56885141e-01 2.56885141e-01
      2.56885141e-01 1.10022388e-01 6.78450391e-02 5.18283918e-02
      4.83227856e-02 9.18396041e-02 2.14976355e-01 2.56885141e-01
      2.56885141e-01 1.84910402e-01 7.46375546e-02 8.15747008e-02
      7.19334409e-02 1.38004944e-01 1.37016729e-01 1.43958956e-01
      2.46218786e-01 2.56885141e-01 2.14647576e-01 1.28167391e-01
      1.15037583e-01 7.97422156e-02 7.90331289e-02 7.49333426e-02
      1.85477659e-01 2.63779879e-01 2.63779879e-01 2.63779879e-01
      1.36913285e-01 8.29344913e-02 6.40030876e-02 6.34854287e-02
      1.16981417e-01 7.78236017e-02 1.40180662e-01 2.63779879e-01
      2.39155248e-01 1.48212463e-01 7.62771964e-02 6.71292022e-02
      6.15871549e-02 8.36108029e-02 1.95837706e-01 2.63779879e-01
      2.63779879e-01 2.63779879e-01 1.59054086e-01 1.41988650e-01
      9.95036215e-02 1.04677081e-01 9.91472304e-02 5.99163957e-02
      1.25580475e-01 2.57577896e-01 2.09689766e-01 1.67331070e-01
      9.62185413e-02 9.04732421e-02 8.77426863e-02 7.19202384e-02
      1.06433392e-01 1.93249255e-01 2.39402846e-01 2.39402846e-01
      1.98008850e-01 1.04201399e-01 9.03769881e-02 8.10323954e-02
      1.15216173e-01 1.42609686e-01 2.11654454e-01 2.39402846e-01
      2.39402846e-01 2.01332331e-01 8.66898894e-02 1.05245531e-01
      1.29282579e-01 1.50029153e-01 8.70485157e-02 1.73205465e-01
      2.39402846e-01 2.39402846e-01 2.21719518e-01 1.36343420e-01
      1.27943560e-01 1.22618683e-01 9.96835753e-02 8.71471837e-02
      1.52565926e-01 2.39402846e-01 2.39402846e-01 2.17725530e-01
      6.28849193e-02 7.72301406e-02 7.14371204e-02 9.43370312e-02
      1.11181363e-01 1.74023271e-01 2.22377047e-01 2.22377047e-01
      1.72500089e-01 7.21595958e-02 8.40512589e-02 1.03334732e-01
      1.17025323e-01 2.22377047e-01 2.22377047e-01 2.22377047e-01
      2.17309579e-01 2.22377047e-01 1.41316354e-01 1.41218752e-01
      2.01891959e-01 2.22377047e-01 6.81952536e-02 1.27662897e-01
      2.22377047e-01 2.22377047e-01 1.82403088e-01 5.33452444e-02
      6.49465993e-02 6.30267337e-02 7.80009553e-02 1.97425455e-01
      2.16762796e-01 1.97261065e-01 1.73779845e-01 2.22377047e-01
      9.59129110e-02 8.16064179e-02 6.92337230e-02 1.38754830e-01
      1.14707701e-01 1.27258152e-01 1.36058509e-01 8.87886584e-02
      1.10508285e-01 5.33940531e-02 6.05808534e-02 9.19141471e-02
      1.08158439e-01 2.13628396e-01 2.71337837e-01 2.76607841e-01
      2.76607841e-01 2.76607841e-01 2.20351949e-01 1.79860696e-01
      1.32189855e-01 1.98266968e-01 8.12900737e-02 9.70018357e-02
      8.79387781e-02 7.43475407e-02 1.10503674e-01 3.53518426e-02
      3.39261256e-02 3.10173575e-02 5.44073991e-02 1.55826420e-01
      1.66664392e-01 2.74197966e-01 2.76607841e-01 2.76607841e-01
      2.01105312e-01 1.36394694e-01 7.08899498e-02 1.54825494e-01
      1.42473951e-01 1.73681915e-01 2.44127497e-01 2.44127497e-01
      2.44127497e-01 1.35105610e-01 1.11269534e-01 8.78995433e-02
      1.28141806e-01 1.54742584e-01 2.22371802e-01 2.44127497e-01
      2.44127497e-01 2.44127497e-01 1.40656248e-01 1.37559995e-01
      8.50440934e-02 1.38182923e-01 1.02651991e-01 1.10440053e-01
      1.68125778e-01 1.87610567e-01 2.44127497e-01 1.22910574e-01
      8.30834359e-02 4.57647294e-02 9.60450023e-02 9.16704983e-02
      1.05981149e-01 1.79939404e-01 2.16140240e-01 2.44127497e-01
      1.74082994e-01 1.22009508e-01 6.61782548e-02 9.62925106e-02
      1.91402644e-01 2.59733051e-01 2.59733051e-01 2.59733051e-01
      2.59733051e-01 1.82808235e-01 1.76655814e-01 1.06764823e-01
      1.75169840e-01 2.24369302e-01 1.93091497e-01 1.23622090e-01
      8.26990083e-02 1.00600168e-01 6.21283464e-02 6.83674663e-02
      8.39889646e-02 1.67615578e-01 1.19664229e-01 1.35747552e-01
      2.41003618e-01 2.59733051e-01 2.59733051e-01 2.17820302e-01
      1.53800249e-01 8.06982964e-02 1.26975268e-01 9.94816571e-02
      8.53534192e-02 7.03363270e-02 9.39825177e-02 1.87119439e-01
      1.18942544e-01 8.24676678e-02 8.40468556e-02 8.47887322e-02
      2.40983531e-01 2.40983531e-01 2.39263266e-01 1.63847506e-01
      2.00877532e-01 1.08794153e-01 1.21356681e-01 1.39760569e-01
      2.40983531e-01 2.40983531e-01 1.77555621e-01 8.77068862e-02
      4.33274694e-02 7.50276223e-02 7.30213821e-02 8.34107175e-02
      1.86566934e-01 2.40983531e-01 1.59224510e-01 1.44774064e-01
      1.31032467e-01 1.74618617e-01 2.40983531e-01 2.06379682e-01
      1.47666052e-01 1.40931189e-01 1.34240329e-01 1.77516729e-01
      9.68888402e-02 7.29546472e-02 9.26090702e-02 1.67172864e-01
      1.24091543e-01 7.58040696e-02 1.63015217e-01 2.40983531e-01</_>
    <_>
      2.25019574e-01 1.84211433e-01 1.31514907e-01 8.02770779e-02
      9.43838954e-02 1.04695618e-01 1.13118172e-01 1.10918544e-01
      1.98329568e-01 2.25907370e-01 2.25907370e-01 2.17420578e-01
      2.11699009e-01 2.25907370e-01 1.63739622e-01 1.38445333e-01
      1.38144732e-01 2.25907370e-01 2.25698933e-01 1.71912432e-01
      1.23306803e-01 1.03634633e-01 9.94153693e-02 1.03855275e-01
      1.14801921e-01 9.66355652e-02 2.25907370e-01 1.74374089e-01
      1.85935974e-01 1.46267384e-01 2.05612987e-01 2.25907370e-01
      1.59938484e-01 1.20288529e-01 7.29911923e-02 1.34624645e-01
      2.13147998e-01 2.14930996e-01 1.28651649e-01 1.05479069e-01
      1.27702922e-01 8.96819606e-02 8.18111822e-02 8.27252939e-02
      1.42263785e-01 1.83710232e-01 1.73891082e-01 1.86354831e-01
      2.64669806e-01 2.64669806e-01 2.64669806e-01 2.32922867e-01
      9.89132375e-02 1.36856258e-01 1.06019996e-01 1.14916228e-01
      8.81561860e-02 1.15212232e-01 1.88232556e-01 8.67790580e-02
      7.06681982e-02 4.33923751e-02 7.75573105e-02 1.25654891e-01
      1.06964611e-01 9.05225277e-02 2.09035218e-01 2.64669806e-01
      2.64669806e-01 2.64669806e-01 1.32003382e-01 1.42303586e-01
      1.15504526e-01 1.12110108e-01 1.08340487e-01 2.55994469e-01
      2.55994469e-01 1.88968286e-01 1.29144400e-01 5.91299757e-02
      8.24512392e-02 8.67476091e-02 8.12609866e-02 1.34998381e-01
      2.55994469e-01 2.55994469e-01 2.40439922e-01 2.17059568e-01
      8.50335360e-02 8.56343806e-02 7.40533471e-02 6.46654367e-02
      5.54108508e-02 1.24060467e-01 2.55994469e-01 2.38344550e-01
      1.80895954e-01 6.76960647e-02 7.99992681e-02 7.71911070e-02
      4.61583734e-02 3.43453437e-02 8.40582773e-02 2.43363634e-01
      2.55994469e-01 2.55994469e-01 2.55994469e-01 1.29623204e-01
      9.11718383e-02 8.60786736e-02 1.42888710e-01 2.83429503e-01
      2.83429503e-01 2.65157253e-01 2.26007536e-01 8.53812695e-02
      8.77546966e-02 9.02182013e-02 1.02109805e-01 9.10247415e-02
      7.85074607e-02 9.05422941e-02 8.28052387e-02 1.37870371e-01
      1.06919095e-01 9.59013551e-02 8.34199041e-02 5.30444682e-02
      3.90442237e-02 9.54935253e-02 2.75006413e-01 2.83429503e-01
      2.83429503e-01 2.83429503e-01 1.33947149e-01 8.38580281e-02
      4.82171029e-02 2.84116361e-02 3.97798643e-02 8.42293501e-02
      1.37010947e-01 2.83429503e-01 2.83429503e-01 1.51716679e-01
      1.38930500e-01 1.59334078e-01 1.50697187e-01 1.30208135e-01
      1.54148132e-01 1.39364123e-01 2.26055250e-01 1.64190084e-01
      1.46094844e-01 1.00529544e-01 8.74545723e-02 5.50786741e-02
      3.86704095e-02 4.58818711e-02 5.37121259e-02 1.35488659e-01
      2.13142127e-01 1.52920619e-01 1.26436487e-01 7.13750273e-02
      4.34501879e-02 6.06420226e-02 1.38926789e-01 2.28258952e-01
      3.15659612e-01 3.15659612e-01 2.36225039e-01 1.79423079e-01
      1.51604176e-01 7.39533901e-02 6.15565181e-02 9.50007960e-02
      7.89672956e-02 2.78598517e-01 3.15659612e-01 2.13011757e-01
      1.35891750e-01 1.21387087e-01 7.82087967e-02 5.61203808e-02
      6.53034300e-02 7.50631914e-02 1.84274673e-01 2.49027520e-01
      1.98916391e-01 1.04243666e-01 1.42114267e-01 1.43628225e-01
      4.96591553e-02 4.72934619e-02 3.67633626e-02 1.01611331e-01
      1.95046708e-01 1.80429190e-01 2.30232820e-01 1.91918358e-01
      9.38364491e-02 8.36230591e-02 1.29690275e-01 1.09648138e-01
      2.49027520e-01 2.49027520e-01 2.49027520e-01 2.49027520e-01
      2.49027520e-01 2.26729974e-01 9.80068520e-02 1.06739216e-01
      6.72836229e-02 1.59438863e-01 2.49027520e-01 2.49027520e-01
      1.09772854e-01 1.42177835e-01 1.42267704e-01 4.82576676e-02
      4.74356413e-02 4.02268395e-02 1.15222365e-01 2.19093278e-01
      1.94309413e-01 1.26130819e-01 2.04771891e-01 2.29732722e-01
      1.00785479e-01 1.15859918e-01 5.10000624e-02 6.25032634e-02
      1.19197488e-01 1.65565878e-01 2.32573554e-01 2.32573554e-01
      2.30470017e-01 1.00422822e-01 1.10164702e-01 6.95985705e-02
      1.75758436e-01 2.32573554e-01 2.32573554e-01 2.15130121e-01
      2.32573554e-01 2.32573554e-01 1.47263095e-01 1.48557767e-01
      8.35377723e-02 1.29620194e-01 2.32573554e-01 2.32573554e-01
      1.35456502e-01 2.30997637e-01 2.43404433e-01 1.07975878e-01
      1.18258975e-01 5.35326228e-02 6.87361956e-02 1.28916457e-01
      1.76849470e-01 1.68122053e-01 1.43800735e-01 1.17369257e-01
      8.88456106e-02 1.17754593e-01 6.37977272e-02 5.86020127e-02
      1.15940973e-01 2.02571735e-01 2.36620069e-01 2.43404433e-01
      2.43404433e-01 1.63696110e-01 1.58284128e-01 9.09956545e-02
      1.44723445e-01 2.43404433e-01 2.43404433e-01 2.21662357e-01
      1.58559516e-01 1.59353003e-01 9.96336639e-02 1.22679427e-01
      7.92191774e-02 1.24750741e-01 2.43404433e-01 2.43404433e-01
      1.86526418e-01 1.58310443e-01 1.34948671e-01 1.01138122e-01
      1.36144638e-01 7.05502927e-02 6.56367540e-02 1.33271798e-01
      2.28233099e-01 2.30978593e-01 2.42730781e-01 1.97394028e-01
      9.83499065e-02 1.15645424e-01 9.02944654e-02 6.91454038e-02
      9.06477571e-02 1.51151627e-01 2.42730781e-01 1.84191421e-01
      1.89669698e-01 1.16234951e-01 1.43550053e-01 8.84508193e-02
      1.38386056e-01 2.42730781e-01 2.42730781e-01 2.17980728e-01
      1.95072144e-01 1.60865739e-01 8.18539932e-02 1.11638218e-01
      1.13140024e-01 1.55996129e-01 2.42730781e-01 2.42730781e-01</_>
    <_>
      2.01204374e-01 1.36726722e-01 9.80129093e-02 9.86088067e-02
      1.25140473e-01 1.12846121e-01 1.55163065e-01 1.53529331e-01
      1.57779053e-01 1.98286340e-01 1.23397402e-01 1.26094401e-01
      1.25362590e-01 2.45123059e-01 2.45123059e-01 2.45123059e-01
      2.45123059e-01 2.45123059e-01 1.86996281e-01 1.23338364e-01
      9.08258185e-02 1.01238780e-01 2.24160716e-01 2.22898901e-01
      2.15914756e-01 1.10860214e-01 1.48738176e-01 1.65649667e-01
      1.04421452e-01 8.67028385e-02 6.36210591e-02 9.15019885e-02
      9.46156830e-02 1.76574484e-01 1.87399715e-01 2.19880402e-01
      1.34803370e-01 8.20118114e-02 8.25875029e-02 8.39195997e-02
      1.95062220e-01 2.35600829e-01 2.46844441e-01 2.46844441e-01
      1.86303496e-01 1.86349809e-01 1.13481291e-01 1.11702077e-01
      7.70666897e-02 2.21667811e-01 2.46844441e-01 2.46844441e-01
      2.46844441e-01 2.46844441e-01 1.10272057e-01 7.00163469e-02
      5.78934588e-02 4.39802930e-02 6.37376308e-02 6.32692128e-02
      1.16960645e-01 1.22427784e-01 1.48313120e-01 2.46844441e-01
      2.03846470e-01 9.06424597e-02 5.28377928e-02 1.25061795e-01
      1.24065809e-01 1.82731166e-01 1.90196380e-01 2.33634323e-01
      9.17577744e-02 5.55861332e-02 5.64948022e-02 4.03876416e-02
      1.19422801e-01 1.71142966e-01 2.42823601e-01 2.34928191e-01
      1.32177472e-01 1.47230238e-01 2.42823601e-01 2.42823601e-01
      2.42823601e-01 2.00315028e-01 1.72662154e-01 1.88763723e-01
      1.67825416e-01 1.50216237e-01 1.38242155e-01 8.79380181e-02
      4.35299687e-02 2.53169574e-02 5.53912483e-02 6.07123822e-02
      9.42653865e-02 9.78488997e-02 1.12948336e-01 2.36979082e-01
      2.42823601e-01 2.42823601e-01 2.42823601e-01 2.42823601e-01
      2.42823601e-01 1.05826437e-01 7.18706176e-02 1.28471658e-01
      7.16140419e-02 1.18515313e-01 1.70770898e-01 1.35266691e-01
      9.23145935e-02 8.53792876e-02 9.95239019e-02 8.85614753e-02
      7.64597133e-02 1.29539400e-01 3.20865959e-01 3.20865959e-01
      2.46882379e-01 1.24296993e-01 7.55214766e-02 5.29908389e-02
      4.52403352e-02 7.60023743e-02 1.21207446e-01 1.62640125e-01
      1.35507077e-01 1.45095453e-01 1.79838032e-01 1.35295734e-01
      5.13733514e-02 3.77524681e-02 6.72284886e-02 6.57379180e-02
      3.01195741e-01 3.20865959e-01 2.87757725e-01 2.86255747e-01
      2.51626700e-01 8.40428099e-02 2.72280425e-02 4.09490690e-02
      1.00542314e-01 3.38283509e-01 3.38283509e-01 2.11195514e-01
      1.07311264e-01 6.60706982e-02 4.71193977e-02 3.99716124e-02
      6.26706481e-02 9.89812836e-02 3.38283509e-01 3.38283509e-01
      7.83144608e-02 3.89486924e-02 1.96347181e-02 1.07914219e-02
      1.09308511e-02 3.60919423e-02 5.85016720e-02 2.39947647e-01
      3.38283509e-01 2.44222283e-01 2.47149587e-01 2.12984964e-01
      6.84357882e-02 2.29455959e-02 3.54739875e-02 1.89780463e-02
      1.38511151e-01 2.36373231e-01 7.25124925e-02 7.60180652e-02
      7.26353303e-02 3.30589935e-02 1.10918367e-02 1.51218595e-02
      1.56201690e-01 4.12309706e-01 4.12309706e-01 1.37486950e-01
      6.86948374e-02 3.60742882e-02 1.93067957e-02 1.89539362e-02
      5.96014820e-02 8.54720399e-02 4.12309706e-01 3.73882622e-01
      3.34601849e-02 3.24668773e-02 7.20231934e-03 5.77996066e-03
      7.59737752e-03 2.21159570e-02 3.14522050e-02 2.36888990e-01
      4.04250056e-01 1.32298574e-01 1.37539878e-01 1.33441076e-01
      5.72801828e-02 1.85163673e-02 2.43411623e-02 1.52874105e-02
      2.91598495e-02 2.90087424e-02 8.62598792e-03 2.74559371e-02
      1.07365977e-02 1.09969005e-02 1.03019457e-02 1.77406650e-02
      3.31228763e-01 5.25891006e-01 5.25891006e-01 1.25270858e-01
      1.14806712e-01 2.64174491e-02 1.88453663e-02 2.65315101e-02
      8.59452188e-02 1.18294366e-01 3.68392467e-01 1.14344463e-01
      8.87748748e-02 1.53406352e-01 3.71479206e-02 3.67724784e-02
      3.37065272e-02 6.42167330e-02 5.50839119e-02 1.26334861e-01
      1.41803488e-01 3.32757719e-02 9.85115543e-02 4.44346108e-02
      4.16822582e-02 3.59975845e-02 6.13667183e-02 4.79352325e-02
      4.32535224e-02 2.20328346e-02 4.11501676e-02 1.39180675e-01
      2.73222867e-02 3.33545767e-02 3.41290087e-02 6.54006302e-02
      2.80054212e-01 2.86707252e-01 2.86707252e-01 1.85741901e-01
      2.86707252e-01 7.58678019e-02 7.50999227e-02 7.01699853e-02
      1.36027381e-01 1.52600586e-01 1.64821669e-01 1.21448062e-01
      1.66084826e-01 2.86707252e-01 9.92332548e-02 8.87912586e-02
      1.04103103e-01 1.55572563e-01 1.00028776e-01 9.33696479e-02
      4.83702272e-02 8.10319856e-02 2.76119113e-01 5.44617213e-02
      7.30670094e-02 7.43037686e-02 1.37846306e-01 1.79936379e-01
      1.18989639e-01 8.32065344e-02 1.02708727e-01 2.86707252e-01
      1.10561967e-01 8.24341476e-02 1.23350844e-01 2.40574703e-01
      1.70485243e-01 1.86399892e-01 1.24774665e-01 1.84897467e-01
      2.50274152e-01 1.08546972e-01 9.98184830e-02 1.12998903e-01
      1.69098318e-01 1.55049965e-01 1.31037742e-01 1.14132598e-01
      8.69209990e-02 2.50274152e-01 7.43976086e-02 4.94965725e-02
      8.29957351e-02 1.46942899e-01 1.82585776e-01 1.20650247e-01
      8.25565010e-02 1.10015824e-01 2.50274152e-01 1.12241209e-01
      8.71320441e-02 1.22953817e-01 2.41499946e-01 2.50274152e-01
      2.35560015e-01 1.73756287e-01 1.19448923e-01 2.50274152e-01
      1.59968078e-01 1.24150135e-01 2.12952435e-01 2.50274152e-01</_>
    <_>
      1.95633605e-01 1.18818372e-01 9.34538096e-02 9.16012749e-02
      1.63187727e-01 7.05180243e-02 1.16640627e-01 1.93098381e-01
      1.85296565e-01 2.20217943e-01 2.20217943e-01 2.20217943e-01
      2.20217943e-01 2.20217943e-01 1.17508985e-01 2.03913942e-01
      2.03320846e-01 2.12371379e-01 2.20217943e-01 1.41067371e-01
      1.06000409e-01 9.16552767e-02 1.33238256e-01 6.72611296e-02
      1.16191089e-01 1.57066643e-01 2.06714526e-01 2.18193114e-01
      1.69762447e-01 1.71867579e-01 1.89730301e-01 2.06189051e-01
      5.82305267e-02 1.25584438e-01 1.16616912e-01 1.36729181e-01
      1.24095187e-01 1.02711402e-01 1.08770922e-01 1.30442753e-01
      1.60247549e-01 5.12195639e-02 8.93663764e-02 9.74477306e-02
      9.80904624e-02 2.79686183e-01 1.80511758e-01 2.79686183e-01
      2.79686183e-01 2.79686183e-01 2.20684126e-01 2.41065010e-01
      1.34428710e-01 2.32023716e-01 1.01054125e-01 8.11013877e-02
      7.88957626e-02 8.06148872e-02 9.34705958e-02 2.75417678e-02
      5.75573221e-02 5.90617657e-02 6.66733310e-02 2.11664990e-01
      7.27321804e-02 1.36322096e-01 2.79686183e-01 2.79686183e-01
      1.95551425e-01 1.80916965e-01 6.80730343e-02 1.08704366e-01
      1.93837985e-01 9.15094092e-02 1.77813336e-01 2.30365321e-01
      2.52597302e-01 1.08910002e-01 1.19943738e-01 6.91799223e-02
      1.14507250e-01 2.52597302e-01 2.09046736e-01 2.52597302e-01
      2.52597302e-01 2.52597302e-01 1.49186015e-01 1.12447992e-01
      9.72660929e-02 1.86090425e-01 1.04414679e-01 3.87782604e-02
      6.69812933e-02 1.67038247e-01 2.49761969e-01 9.49401408e-02
      8.92056897e-02 3.47558223e-02 5.38790077e-02 1.20459989e-01
      6.77063614e-02 1.62799150e-01 2.52597302e-01 2.52597302e-01
      2.14177251e-01 1.45980671e-01 8.00405741e-02 7.69584626e-02
      2.50439793e-01 1.78675845e-01 2.50439793e-01 2.50439793e-01
      2.50439793e-01 1.43572718e-01 1.10003889e-01 8.71800855e-02
      1.69576928e-01 2.50439793e-01 2.50439793e-01 1.54752448e-01
      1.54151112e-01 1.24390729e-01 6.01292923e-02 6.85172901e-02
      1.38550982e-01 2.17443377e-01 1.13581851e-01 5.72329052e-02
      1.42243266e-01 2.50439793e-01 2.50439793e-01 1.99908152e-01
      1.36089131e-01 6.92496747e-02 7.03467503e-02 1.27266079e-01
      9.67594758e-02 1.26687065e-01 1.84842765e-01 1.73308551e-01
      1.06679827e-01 1.16794765e-01 1.11099988e-01 9.46317017e-02
      2.44837880e-01 2.44837880e-01 1.91040695e-01 2.00203151e-01
      1.69076264e-01 7.56636709e-02 7.98437893e-02 1.56930834e-01
      2.44837880e-01 2.44837880e-01 2.44837880e-01 2.44837880e-01
      7.25984350e-02 6.84673339e-02 5.65949567e-02 8.42769742e-02
      1.64036989e-01 2.44837880e-01 1.47841349e-01 1.14089578e-01
      1.57458648e-01 2.36984551e-01 2.24602163e-01 1.31309792e-01
      1.34435683e-01 1.28027439e-01 1.07948944e-01 1.36558846e-01
      9.79299322e-02 9.42782164e-02 8.91917050e-02 1.30095452e-01
      1.21131405e-01 2.08496958e-01 1.52843446e-01 1.25396788e-01
      2.57293582e-01 2.57293582e-01 2.57293582e-01 7.48669505e-02
      6.94836900e-02 5.88555187e-02 9.32441130e-02 1.87096789e-01
      2.57293582e-01 1.88617274e-01 2.57293582e-01 2.57293582e-01
      1.60667941e-01 1.31334022e-01 7.42197782e-02 6.50965348e-02
      7.44790360e-02 1.06874660e-01 1.52447239e-01 1.03606835e-01
      1.01681590e-01 9.48516130e-02 1.37006685e-01 1.22629426e-01
      2.16337979e-01 1.66402489e-01 1.39993548e-01 1.55993313e-01
      2.04498708e-01 1.56130463e-01 1.53159022e-01 1.65137395e-01
      1.29347995e-01 2.00773448e-01 1.96656153e-01 1.38184965e-01
      2.12583035e-01 2.54979938e-01 2.54979938e-01 1.61445066e-01
      1.36386797e-01 7.77337626e-02 6.99364915e-02 8.47948641e-02
      1.20862015e-01 1.49793223e-01 2.54979938e-01 2.54979938e-01
      1.89346015e-01 1.07134797e-01 6.97055832e-02 5.94746806e-02
      5.41194864e-02 7.87812769e-02 1.56586587e-01 1.96338236e-01
      1.56091854e-01 1.54311359e-01 1.77733481e-01 1.39961436e-01
      2.16494575e-01 2.04771772e-01 1.42957881e-01 1.85505152e-01
      2.54979938e-01 2.24801943e-01 1.30131826e-01 1.10063083e-01
      8.13307017e-02 1.10991277e-01 1.72567010e-01 1.67687431e-01
      1.60771325e-01 2.48149917e-01 2.48149917e-01 2.06214473e-01
      1.18621662e-01 7.75680840e-02 6.24932982e-02 5.82424998e-02
      8.11440870e-02 2.30610624e-01 2.48149917e-01 2.48149917e-01
      1.76590428e-01 1.29505903e-01 4.79679219e-02 5.20299114e-02
      5.79749122e-02 1.26960590e-01 2.05725312e-01 2.48149917e-01
      2.40283981e-01 1.44038096e-01 1.21596202e-01 9.24549922e-02
      1.27815709e-01 1.95813656e-01 1.80100545e-01 2.06481457e-01
      2.47481406e-01 2.16339886e-01 1.11556761e-01 1.42010644e-01
      7.24880397e-02 6.13139793e-02 8.92458409e-02 1.73579946e-01
      2.41431117e-01 2.41431117e-01 2.41431117e-01 2.00224504e-01
      1.40009210e-01 5.33480458e-02 5.83173670e-02 6.34915084e-02
      1.35547012e-01 2.41431117e-01 2.41431117e-01 2.41431117e-01
      1.68275788e-01 1.19389728e-01 5.08921072e-02 4.07943912e-02
      6.01692535e-02 1.46800652e-01 2.25566238e-01 2.41431117e-01
      2.41431117e-01 1.25680789e-01 1.53605357e-01 7.98709393e-02
      7.14558139e-02 1.04736514e-01 1.86620668e-01 2.41431117e-01
      2.41431117e-01 1.90945685e-01 1.09417282e-01 1.19052738e-01
      5.30544445e-02 3.64007019e-02 6.58464283e-02 1.89007983e-01</_>
    <_>
      2.05467388e-01 1.59702644e-01 1.56682417e-01 9.26858485e-02
      1.45853058e-01 4.95075919e-02 5.62990829e-02 7.85990506e-02
      1.36476919e-01 2.13479921e-01 2.13479921e-01 2.13479921e-01
      1.65454865e-01 1.57693565e-01 9.08345431e-02 1.50917128e-01
      1.60810813e-01 2.13479921e-01 2.07279220e-01 1.85566068e-01
      2.11140215e-01 1.13704748e-01 1.70382485e-01 9.47310701e-02
      7.71980137e-02 1.15028366e-01 1.86197266e-01 2.13479921e-01
      1.95991427e-01 2.13479921e-01 2.10554823e-01 2.08265200e-01
      1.30762920e-01 1.15006775e-01 1.84235319e-01 2.13479921e-01
      2.11337671e-01 1.66968048e-01 1.59539014e-01 1.12599701e-01
      1.09107733e-01 5.90462871e-02 1.00256316e-01 1.08328670e-01
      1.59648702e-01 2.14412928e-01 2.14412928e-01 2.14412928e-01
      2.12964088e-01 1.86002240e-01 2.13411674e-01 2.01092333e-01
      1.55875728e-01 1.95355788e-01 1.60633236e-01 1.35131270e-01
      1.69159845e-01 1.43555731e-01 1.43419430e-01 9.06180367e-02
      8.14037994e-02 1.32181391e-01 1.76852852e-01 1.46618530e-01
      2.02518567e-01 2.03195050e-01 2.14412928e-01 2.14412928e-01
      2.14412928e-01 1.25657350e-01 9.34311599e-02 1.20522417e-01
      1.74098298e-01 2.07692429e-01 1.56753585e-01 1.40079945e-01
      1.20525777e-01 1.38778880e-01 1.36132658e-01 1.05827190e-01
      1.33218005e-01 2.23274261e-01 2.23274261e-01 2.23274261e-01
      1.78068802e-01 1.64265454e-01 1.96406931e-01 1.78900629e-01
      2.16095060e-01 2.23274261e-01 1.01402007e-01 1.31940812e-01
      1.33347109e-01 1.49631441e-01 1.70335099e-01 1.60288945e-01
      8.42977837e-02 6.72960728e-02 8.62935260e-02 1.05916381e-01
      1.89748332e-01 2.23274261e-01 2.14073315e-01 2.23274261e-01
      2.23274261e-01 1.44694328e-01 8.93959552e-02 1.01518430e-01
      1.25051290e-01 1.42635748e-01 1.43698916e-01 8.27254280e-02
      7.63127282e-02 9.37423557e-02 7.91262388e-02 8.86643156e-02
      1.21831022e-01 2.59258121e-01 1.63243309e-01 2.59258121e-01
      2.59258121e-01 2.59258121e-01 1.50153324e-01 2.18412101e-01
      2.59258121e-01 2.59258121e-01 4.85988073e-02 8.68996084e-02
      1.15027614e-01 9.89404917e-02 1.34565532e-01 1.25920340e-01
      6.51215091e-02 3.76726389e-02 4.40219231e-02 1.40621603e-01
      1.12829410e-01 1.73182905e-01 2.59258121e-01 2.59258121e-01
      2.59258121e-01 1.59625888e-01 9.35732648e-02 1.31516308e-01
      1.28125131e-01 7.07025602e-02 1.48209140e-01 1.66018739e-01
      1.62240058e-01 6.88123628e-02 9.75093767e-02 1.37435302e-01
      1.53974026e-01 2.71326572e-01 2.71326572e-01 2.71326572e-01
      2.71326572e-01 2.71326572e-01 1.04970835e-01 1.02650754e-01
      1.18409850e-01 1.56233460e-01 6.09093606e-02 5.23996055e-02
      8.17894712e-02 1.42156988e-01 2.62588650e-01 1.54215097e-01
      7.13068545e-02 4.28098924e-02 5.89298084e-02 1.22092493e-01
      8.57106447e-02 1.10596217e-01 2.71326572e-01 2.71326572e-01
      2.71326572e-01 1.17360428e-01 5.60481958e-02 7.98439831e-02
      2.29600906e-01 2.58601844e-01 2.58601844e-01 2.58601844e-01
      2.58601844e-01 9.15437564e-02 9.48535576e-02 1.10905223e-01
      1.38630942e-01 2.58601844e-01 2.58601844e-01 2.58601844e-01
      2.12175891e-01 1.26165524e-01 3.16309333e-02 2.20261794e-02
      3.07390224e-02 9.07924548e-02 1.00847408e-01 6.77785799e-02
      9.15610418e-02 2.58601844e-01 2.58601844e-01 2.58601844e-01
      9.82074738e-02 4.69162948e-02 6.89569488e-02 1.15665190e-01
      9.98890251e-02 6.84433952e-02 1.38016298e-01 2.14857325e-01
      1.17894016e-01 4.98173609e-02 3.90979871e-02 6.73275143e-02
      2.96820253e-01 2.96820253e-01 2.96820253e-01 2.96820253e-01
      2.25866288e-01 5.57004027e-02 4.12705801e-02 5.73264323e-02
      1.55913353e-01 2.31318802e-01 2.96820253e-01 2.16504738e-01
      8.23033229e-02 5.74666522e-02 2.93174256e-02 3.74124832e-02
      4.18343097e-02 9.36706215e-02 1.95530415e-01 1.64585695e-01
      1.16827622e-01 2.45319068e-01 2.96820253e-01 2.13624656e-01
      8.92956182e-02 6.72440007e-02 1.12646356e-01 9.93094668e-02
      1.16485946e-01 8.26198310e-02 7.68178254e-02 7.11089224e-02
      4.32404242e-02 3.42518575e-02 4.14423198e-02 7.62569532e-02
      2.94132620e-01 2.94132620e-01 2.94132620e-01 1.55200928e-01
      1.03304766e-01 5.10173067e-02 6.60550222e-02 7.78643861e-02
      1.80102333e-01 1.92055255e-01 2.94132620e-01 2.94132620e-01
      1.59583449e-01 1.41884476e-01 9.53091457e-02 1.19227856e-01
      8.71546715e-02 1.25985086e-01 1.97456762e-01 2.26717517e-01
      1.52604222e-01 1.42770320e-01 1.32721096e-01 7.92844072e-02
      6.31261021e-02 8.02027583e-02 1.46315441e-01 8.10718164e-02
      1.42320231e-01 1.90774247e-01 1.61686778e-01 1.84008941e-01
      1.18769132e-01 9.53023583e-02 9.40889567e-02 9.98075530e-02
      1.70041218e-01 2.34255388e-01 2.34255388e-01 1.30321443e-01
      1.14759929e-01 7.53227919e-02 9.55200717e-02 7.27580637e-02
      1.08208261e-01 2.34255388e-01 2.34255388e-01 2.34255388e-01
      1.92530945e-01 1.77413806e-01 1.52801186e-01 1.35612503e-01
      1.13175623e-01 1.75544113e-01 7.15926439e-02 1.21302053e-01
      1.49797127e-01 1.28873929e-01 1.46092564e-01 9.31418464e-02
      7.50711784e-02 7.48577118e-02 8.48852322e-02 1.29079372e-01
      2.34255388e-01 2.34255388e-01 2.34255388e-01 2.34255388e-01
      2.22280219e-01 1.74823835e-01 1.66418791e-01 1.65300116e-01</_>
    <_>
      1.35582760e-01 8.03468153e-02 9.13285911e-02 1.45018011e-01
      2.89334655e-01 1.10719964e-01 6.11345656e-02 1.68835402e-01
      1.41934931e-01 2.89334655e-01 2.02060625e-01 9.59834382e-02
      1.30371496e-01 2.68593371e-01 1.15633897e-01 1.72767028e-01
      2.89334655e-01 2.89334655e-01 5.49684688e-02 3.64500619e-02
      4.97387834e-02 1.35195151e-01 2.89334655e-01 1.65044621e-01
      3.06952652e-02 7.51780793e-02 6.69764727e-02 8.29743594e-02
      5.26177622e-02 5.33370301e-02 1.70786083e-01 2.89334655e-01
      1.51723549e-01 7.73922727e-02 1.68734714e-01 1.76057562e-01
      2.53496110e-01 1.61581874e-01 8.30868334e-02 1.14588164e-01
      2.44032085e-01 1.02001749e-01 1.42930359e-01 2.53496110e-01
      2.53496110e-01 2.53496110e-01 2.27193326e-01 1.00917093e-01
      1.41582906e-01 1.71878457e-01 8.42964426e-02 1.26479790e-01
      1.74219981e-01 2.38391727e-01 6.95633888e-02 4.30262424e-02
      4.23972867e-02 1.41851187e-01 2.53496110e-01 1.33089483e-01
      6.19404763e-02 1.45758703e-01 1.44549757e-01 1.07374385e-01
      9.61093754e-02 1.37564421e-01 2.53496110e-01 2.53496110e-01
      1.43248573e-01 7.84477368e-02 1.09321527e-01 1.37211248e-01
      2.40775630e-01 2.40775630e-01 1.00895919e-01 1.45730361e-01
      1.79943979e-01 9.03115422e-02 1.39589995e-01 1.97935015e-01
      2.40775630e-01 2.40775630e-01 2.40775630e-01 1.63214564e-01
      1.29364327e-01 1.55690134e-01 7.77266845e-02 6.35384470e-02
      9.27301720e-02 1.27842367e-01 1.12180822e-01 9.55976769e-02
      1.32351428e-01 2.40775630e-01 2.40775630e-01 1.48243263e-01
      8.50681514e-02 1.20328061e-01 1.53493553e-01 1.55749351e-01
      2.09426939e-01 2.32178330e-01 2.18758494e-01 2.40775630e-01
      8.62707496e-02 4.59581316e-02 6.78746700e-02 1.00126632e-01
      2.41446167e-01 2.41446167e-01 2.17966795e-01 1.83008507e-01
      2.27245212e-01 1.13036193e-01 9.64879394e-02 1.38238564e-01
      1.89303041e-01 1.71194062e-01 2.41446167e-01 2.41446167e-01
      1.18524216e-01 1.12800002e-01 6.81028739e-02 4.56008948e-02
      7.37168491e-02 9.06231329e-02 2.14707389e-01 2.41446167e-01
      2.41446167e-01 2.41446167e-01 2.41446167e-01 1.28500983e-01
      6.91066980e-02 1.00800343e-01 1.42757356e-01 1.34989783e-01
      2.05846101e-01 1.77094564e-01 1.08368151e-01 1.33444116e-01
      7.38021433e-02 6.76018596e-02 7.49529749e-02 1.00139737e-01
      1.93364844e-01 2.95811832e-01 2.75611132e-01 1.25875533e-01
      1.23084009e-01 7.33928531e-02 5.05344272e-02 8.34701359e-02
      1.03710100e-01 1.97259769e-01 2.95811832e-01 2.95811832e-01
      2.64173001e-01 2.03560352e-01 1.20936938e-01 7.76201859e-02
      1.24214128e-01 1.12720385e-01 1.56087622e-01 2.41752282e-01
      2.05353498e-01 1.20544255e-01 1.44477487e-01 7.50189200e-02
      7.09955767e-02 8.19802508e-02 1.12343803e-01 1.06601454e-01
      1.31546661e-01 1.96709976e-01 1.74443960e-01 1.50536686e-01
      1.25141904e-01 1.12054527e-01 1.25914276e-01 1.03349701e-01
      1.66867390e-01 3.34996402e-01 3.34996402e-01 2.20587328e-01
      1.71492353e-01 1.00677162e-01 6.65560141e-02 1.05543248e-01
      9.55871269e-02 2.04889148e-01 3.34996402e-01 3.34996402e-01
      1.76348850e-01 1.17082931e-01 7.10101947e-02 4.22013775e-02
      6.89670593e-02 9.61406678e-02 8.98347050e-02 1.12790033e-01
      1.59921587e-01 1.46124408e-01 1.32365450e-01 1.08786993e-01
      9.79350656e-02 1.08080633e-01 8.96833092e-02 1.45055726e-01
      2.23140180e-01 2.23711997e-01 1.16754383e-01 8.59799311e-02
      6.85223415e-02 7.66869187e-02 1.06505319e-01 9.58336368e-02
      2.12512016e-01 3.33966672e-01 3.33966672e-01 1.97206900e-01
      1.30816683e-01 8.09680074e-02 4.77715135e-02 7.79236853e-02
      1.02048308e-01 1.67349860e-01 3.33966672e-01 3.33966672e-01
      1.07699253e-01 6.18029870e-02 3.33810709e-02 2.27756090e-02
      3.20858061e-02 6.96999729e-02 1.45536721e-01 2.19716951e-01
      2.35371977e-01 1.28798276e-01 9.47399363e-02 7.69393072e-02
      8.14497620e-02 1.10685311e-01 9.90747213e-02 1.68017492e-01
      2.92428255e-01 1.85775980e-01 9.00585353e-02 6.43282384e-02
      5.04707396e-02 6.63653091e-02 8.68679583e-02 1.14231929e-01
      2.09614873e-01 2.84933418e-01 2.84933418e-01 1.38531312e-01
      7.95833543e-02 4.16674502e-02 2.86740605e-02 4.18691263e-02
      8.88586938e-02 1.86995134e-01 2.84933418e-01 2.84933418e-01
      1.44066393e-01 7.12712929e-02 8.48812610e-02 5.71664572e-02
      8.19311887e-02 1.30240336e-01 2.10651338e-01 2.84933418e-01
      2.35376924e-01 1.07687563e-01 8.00837353e-02 6.18970916e-02
      8.27370211e-02 1.11507416e-01 1.41848281e-01 1.78072169e-01
      2.23738328e-01 2.07811579e-01 2.14253098e-01 1.30667508e-01
      1.22618891e-01 8.34466070e-02 9.92532000e-02 1.83839798e-01
      1.67344421e-01 2.25599483e-01 2.25599483e-01 1.29175216e-01
      6.32847846e-02 7.02455938e-02 4.83041406e-02 6.90476596e-02
      1.10719293e-01 2.10453808e-01 2.25599483e-01 2.25599483e-01
      1.96213707e-01 1.13471858e-01 1.50523946e-01 1.06704906e-01
      1.13859348e-01 1.69050723e-01 1.62133694e-01 2.16554895e-01
      1.86239198e-01 1.81830108e-01 1.12677008e-01 1.03413701e-01
      7.09840581e-02 8.52034017e-02 1.57611758e-01 2.19376162e-01
      1.98929489e-01 2.25599483e-01 2.25599483e-01 1.90462574e-01
      1.82687670e-01 1.47934273e-01 1.28619611e-01 2.25599483e-01</_>
    <_>
      2.57483363e-01 2.28880078e-01 1.21908724e-01 6.98423907e-02
      9.74394754e-02 6.11473061e-02 7.68306628e-02 9.57716331e-02
      2.57483363e-01 2.57483363e-01 2.57483363e-01 2.57483363e-01
      1.57637730e-01 1.31170526e-01 8.14387053e-02 8.49329233e-02
      8.16488191e-02 1.92601234e-01 2.46155515e-01 1.77995995e-01
      2.35494867e-01 1.45604268e-01 1.01063453e-01 6.65304884e-02
      3.07985581e-02 3.72960493e-02 1.51063964e-01 2.06904083e-01
      2.24219993e-01 2.54793316e-01 1.29346445e-01 1.81701675e-01
      1.59773961e-01 8.70651677e-02 5.17135262e-02 1.16514027e-01
      2.41187602e-01 2.41187602e-01 2.41187602e-01 1.24686934e-01
      1.07835270e-01 6.57566711e-02 6.84699193e-02 6.72309846e-02
      1.77186653e-01 1.21455826e-01 2.41187602e-01 2.41187602e-01
      2.37830281e-01 2.02386364e-01 1.27846181e-01 9.23829526e-02
      9.84724984e-02 1.13726728e-01 1.87998503e-01 1.87366277e-01
      2.04786509e-01 1.05666392e-01 1.40197814e-01 1.20638020e-01
      6.55716136e-02 4.05358449e-02 1.00296311e-01 1.17670991e-01
      2.13045627e-01 2.41187602e-01 2.08151534e-01 2.41187602e-01
      2.41187602e-01 1.13174580e-01 6.76229596e-02 8.13853368e-02
      7.16959015e-02 1.77351445e-01 2.40590692e-01 1.30439222e-01
      1.12268157e-01 7.34692216e-02 5.66853359e-02 5.52121252e-02
      6.47662133e-02 1.73889011e-01 2.40590692e-01 2.38493130e-01
      2.40590692e-01 2.40590692e-01 1.73566386e-01 8.53951871e-02
      9.12700593e-02 1.00235201e-01 6.56071827e-02 1.16856523e-01
      1.59177452e-01 1.12466291e-01 1.90076590e-01 1.50966406e-01
      6.81870729e-02 3.89648564e-02 4.52901162e-02 2.20660791e-01
      2.40590692e-01 2.40590692e-01 2.40590692e-01 2.40590692e-01
      2.38191351e-01 1.24163397e-01 1.22273669e-01 2.25096583e-01
      1.21728733e-01 2.18502805e-01 1.75649479e-01 2.22776920e-01
      2.22776920e-01 1.25272661e-01 6.37971908e-02 6.73289374e-02
      7.45636523e-02 1.43546045e-01 1.97422326e-01 1.26417622e-01
      2.22776920e-01 1.86691180e-01 1.09561563e-01 6.76634386e-02
      4.94173169e-02 6.08575605e-02 1.53580129e-01 2.05209687e-01
      1.87673733e-01 2.22776920e-01 2.22776920e-01 1.73937649e-01
      8.84439424e-02 8.32236186e-02 1.51246428e-01 2.22776920e-01
      1.72955453e-01 1.51465222e-01 2.18625695e-01 2.22776920e-01
      1.69247150e-01 1.15028672e-01 1.81649968e-01 2.22776920e-01
      1.79351941e-01 2.38962129e-01 1.67435437e-01 2.38962129e-01
      2.38962129e-01 1.46570206e-01 8.71780887e-02 6.53337985e-02
      7.87440017e-02 1.40116677e-01 1.59692407e-01 8.88510644e-02
      7.16279224e-02 5.08994795e-02 4.49656397e-02 5.51776476e-02
      4.24702540e-02 7.66439661e-02 2.38962129e-01 2.31021583e-01
      2.05518514e-01 2.38962129e-01 2.38962129e-01 2.23764181e-01
      1.46588162e-01 2.17042863e-01 2.38962129e-01 2.16287926e-01
      9.67102349e-02 8.19165185e-02 5.42946383e-02 1.25344574e-01
      1.05862439e-01 1.08588241e-01 2.20826060e-01 2.38962129e-01
      2.52884716e-01 2.52884716e-01 1.61048681e-01 1.52525052e-01
      1.05888829e-01 8.94993618e-02 1.04808226e-01 7.65436068e-02
      1.34476349e-01 2.17068136e-01 2.52884716e-01 1.61462337e-01
      7.87331685e-02 8.38727802e-02 6.19399622e-02 6.76223710e-02
      8.41815546e-02 1.38205692e-01 2.52884716e-01 1.78816333e-01
      1.56731650e-01 1.17837176e-01 2.48398945e-01 2.04032496e-01
      2.01952890e-01 2.52884716e-01 2.52884716e-01 1.60560519e-01
      1.34029999e-01 1.16689697e-01 6.90213367e-02 1.63682133e-01
      1.19373605e-01 1.11068577e-01 1.46435171e-01 1.94708765e-01
      2.29441956e-01 2.29441956e-01 2.24154383e-01 1.11892350e-01
      1.14747800e-01 8.50941390e-02 9.33598652e-02 1.10252015e-01
      1.91014856e-01 1.93312153e-01 2.29441956e-01 2.29441956e-01
      1.00004882e-01 1.33202285e-01 1.18007332e-01 8.75998288e-02
      1.05901480e-01 1.33796975e-01 2.29441956e-01 1.90347284e-01
      1.66159660e-01 9.57215503e-02 2.28237107e-01 1.74657479e-01
      1.66934788e-01 2.28449807e-01 2.29441956e-01 1.01847410e-01
      1.46698669e-01 1.21443056e-01 1.18053243e-01 2.29441956e-01
      1.85048670e-01 1.30012304e-01 1.05714113e-01 1.19511485e-01
      2.14896485e-01 2.31689170e-01 2.31689170e-01 9.85248983e-02
      1.40140310e-01 1.17584512e-01 8.98988917e-02 1.11681297e-01
      1.42771676e-01 2.01668754e-01 2.31689170e-01 2.31689170e-01
      2.31689170e-01 1.68597043e-01 1.23542234e-01 1.06666721e-01
      1.19429909e-01 1.65610448e-01 1.07819557e-01 1.51571080e-01
      1.23681396e-01 1.15780838e-01 2.31689170e-01 1.86031640e-01
      1.33298725e-01 1.06738128e-01 1.24235615e-01 1.26690477e-01
      1.52964920e-01 1.83038577e-01 2.20007300e-01 2.31689170e-01
      1.97668642e-01 1.40348360e-01 1.19358547e-01 1.31646976e-01
      1.72517180e-01 2.25901440e-01 2.25901440e-01 1.93940744e-01
      1.46088958e-01 1.10626094e-01 9.47273597e-02 1.03083856e-01
      1.40836537e-01 2.25901440e-01 2.25901440e-01 2.25901440e-01
      2.25901440e-01 2.25901440e-01 9.70880911e-02 8.05006474e-02
      1.25750095e-01 2.21054539e-01 1.09900452e-01 1.36110678e-01
      1.60081416e-01 1.85712144e-01 2.25901440e-01 1.81984872e-01
      1.32777095e-01 1.08866110e-01 1.16817541e-01 1.27032399e-01
      1.43608108e-01 1.89573437e-01 2.25901440e-01 2.25901440e-01
      8.75894725e-02 5.00530154e-02 6.52588084e-02 1.11144103e-01</_>
    <_>
      2.14900807e-01 2.22573981e-01 2.22573981e-01 2.22573981e-01
      1.36518255e-01 1.10667869e-01 1.19692139e-01 9.51308981e-02
      1.25614285e-01 2.18023628e-01 1.90145418e-01 1.75527915e-01
      1.86581850e-01 1.24075785e-01 1.03316106e-01 1.56718299e-01
      1.49050966e-01 1.56456888e-01 2.22573981e-01 2.22573981e-01
      2.22573981e-01 2.22573981e-01 1.45964369e-01 9.96944383e-02
      1.19241595e-01 1.18324153e-01 1.44715846e-01 2.21375406e-01
      1.85617700e-01 1.69133291e-01 1.60526410e-01 1.35893226e-01
      7.66853765e-02 1.01666808e-01 1.27509758e-01 1.37686715e-01
      2.16498405e-01 2.16498405e-01 2.16498405e-01 2.16498405e-01
      1.49987355e-01 1.24484256e-01 1.92768857e-01 1.77642152e-01
      1.82033956e-01 2.16498405e-01 1.79658189e-01 1.31602511e-01
      8.77172872e-02 1.33125514e-01 9.71303657e-02 1.36423886e-01
      1.52966276e-01 2.16498405e-01 2.16498405e-01 2.16498405e-01
      2.16498405e-01 2.03813642e-01 1.59947023e-01 9.25707147e-02
      1.24297418e-01 1.55700848e-01 1.68685585e-01 1.69325873e-01
      1.22259356e-01 1.09194927e-01 9.14265960e-02 1.74386591e-01
      8.34361464e-02 1.07342236e-01 1.47642583e-01 1.76792547e-01
      2.25037217e-01 2.04730153e-01 1.51597947e-01 1.04932018e-01
      1.50245696e-01 1.11209713e-01 1.65396094e-01 1.77891254e-01
      2.25037217e-01 2.25037217e-01 2.25037217e-01 2.25037217e-01
      1.34444281e-01 2.06054181e-01 1.47784933e-01 1.22386746e-01
      1.41349003e-01 2.25037217e-01 2.00425357e-01 1.40419364e-01
      1.26720250e-01 1.05881989e-01 1.97191492e-01 9.24427286e-02
      1.25085384e-01 1.67814612e-01 1.98503673e-01 1.38813496e-01
      1.44950956e-01 1.52017310e-01 1.10791601e-01 2.17938438e-01
      1.04730055e-01 1.01901516e-01 1.27836898e-01 1.67523563e-01
      2.38555506e-01 2.38555506e-01 1.97914168e-01 1.04860574e-01
      1.65354073e-01 1.17593691e-01 1.04484625e-01 1.21680357e-01
      2.13496163e-01 2.38555506e-01 2.38555506e-01 2.38555506e-01
      2.38555506e-01 2.38555506e-01 1.90557808e-01 1.55412152e-01
      1.74345672e-01 1.50567010e-01 1.17917039e-01 1.19059339e-01
      1.25036120e-01 9.15607437e-02 1.76329851e-01 8.80092829e-02
      8.93159136e-02 1.13449357e-01 1.46550938e-01 1.23616323e-01
      1.38301015e-01 1.86357737e-01 1.55279934e-01 2.38555506e-01
      1.30627111e-01 8.93930420e-02 8.73515382e-02 8.35466012e-02
      1.86078116e-01 1.94274768e-01 1.76355243e-01 1.21520266e-01
      1.61785558e-01 9.18500125e-02 7.18821958e-02 7.82065243e-02
      7.41807520e-02 2.36865476e-01 2.36865476e-01 2.36865476e-01
      2.36865476e-01 2.36865476e-01 1.87262014e-01 2.20090047e-01
      2.36865476e-01 2.36865476e-01 6.28544465e-02 7.04866573e-02
      9.29016247e-02 7.52297714e-02 1.50012761e-01 6.10753372e-02
